{
    "biases":[
        [
            0.33295108259135636,
            -1.1456898821593602,
            2.4368120728168208,
            1.1816741955743473,
            0.5844898003383713,
            -1.5756990226940137,
            0.175716424297909,
            -2.4278734278154,
            -0.1131830668722583,
            -0.1291919786279052,
            -2.6799362620111586,
            -0.2991058790220421,
            -1.9189828724182936,
            -1.2556464435847423,
            -3.179644314651867,
            0.901951703085515,
            0.4722190966044802,
            -1.7065878605825067,
            1.1365041682518904,
            -1.7983894782522698,
            -0.6834237700440022,
            0.6480994454403592,
            0.006172109519689922,
            -2.9525169873748154,
            -2.7663619604588887,
            -0.3943605900064039,
            -2.353721747218318,
            -0.4549041514398731,
            -0.2239743791121134,
            0.8875088572773191,
            -0.5065408352201467,
            1.421238646109332,
            -0.6771342368174871,
            0.9083885724775241,
            -0.9754006808591514,
            -0.17156019296235323,
            -0.5853467597060065,
            -0.9181319612202133,
            0.743488555449937,
            -1.9788266006646955,
            0.13770942248777998,
            0.08059386520717549,
            1.105021253423305,
            2.014656689029335,
            -0.05057968972983643,
            -0.19613838020264754,
            -1.2393008486106536,
            2.1717504285965545,
            -3.391933780206525,
            -0.056081463113549626,
            -2.1266240390039917,
            0.21018252413082805,
            -0.48168800890797825,
            0.04767272981684937,
            1.4621330133114765,
            -1.0185974176264094,
            1.676547742788876,
            -1.625302778642575,
            -0.16871378497937392,
            -0.6522607047576203,
            -0.9236581918706208,
            0.05693503603740079,
            -0.5611260588240441,
            0.8206976833619762,
            0.13379924113190447,
            -1.4384312354575766,
            0.8838658254980643,
            -0.766735387257085,
            -0.44535543515878695,
            0.2700215214066937,
            -1.934338144584246,
            -1.9729546802221993,
            1.1466738355607458,
            1.4322072395733836,
            -0.8397799070354528,
            0.7779527737340948,
            3.0683496240816006,
            0.7095043004061556,
            0.4051454209808408,
            -0.5378344214527444,
            1.4137540256579382,
            -1.8313710670805665,
            -1.9564012150641632,
            -0.06420405926174656,
            -0.3932813896711904,
            -0.9420630417873139,
            -2.620396214359189,
            0.6381432124382991,
            1.51501636447953,
            0.5309101768100309,
            -0.37325290934183647,
            0.3825528164056878,
            -0.4736272923731076,
            -1.9159088848638128,
            -0.5377795190647658,
            2.557996576499531,
            -0.9526578858554693,
            -1.5421119846420404,
            0.10566068149571221,
            -0.16812747910390996
        ],
        [
            -1.203290025134521,
            -1.3473957537146561,
            -2.0422852409355103,
            -1.772870217116104,
            -0.893470731506242,
            -0.6406661262814576,
            -0.18055173120368703,
            -2.660331578162547,
            -2.7324073269510563,
            -3.111180810513202
        ]
    ],
    "num_layers":3,
    "sizes":[
        784,
        100,
        10
    ],
    "weights":[
        [
            [
                0.23291935418846244,
                -0.44494810555674746,
                1.112683399207282,
                -0.5378926418731315,
                1.830016686272633,
                -1.337352850719573,
                0.19276776543791949,
                1.2881192698504518,
                0.034142697068504306,
                1.4534764547045078,
                -0.11816385385155659,
                1.4032876456019123,
                -2.4593506318438396,
                1.0345423300085173,
                1.0297313620526143,
                -0.8743288119679109,
                0.6102448003252448,
                -0.5566621787135522,
                -1.0744782739480467,
                -0.06209579482618436,
                -0.8039518728687601,
                1.3831645591904858,
                -0.5457368316574324,
                -0.35240313560204756,
                -0.27744895527931407,
                -1.2730987870620503,
                1.3974357855486583,
                -1.8762066205683408,
                0.31148420549915806,
                -0.21940692868168063,
                -0.914934821417123,
                -0.020425547735011967,
                0.40613340627669176,
                -1.4180951162313111,
                -1.1842068956458636,
                2.11584087422194,
                0.40574336635695063,
                0.03231001947661931,
                1.2547166553712674,
                0.9967083269796223,
                -0.5696044133240876,
                0.8083508431975887,
                0.19886268766296208,
                0.21858667395851106,
                -0.2930926161721751,
                0.04597812633395548,
                -0.5365469059757207,
                -2.0061475873964048,
                0.2515727009030881,
                -0.6040249304148665,
                -0.004692273169257475,
                1.345070814796332,
                -1.2252378018278358,
                0.12633067188002345,
                -0.929377114002418,
                0.4979451724973834,
                -1.3007948743999003,
                -0.3294925873215917,
                -0.31206493525726364,
                -0.006178552146615912,
                -0.7091740361239556,
                1.2889780759116833,
                1.1737276154913947,
                -0.8927580362994286,
                0.26983253336652185,
                -1.449732974090668,
                -0.2806531992699705,
                -0.6220869540191627,
                -0.4129516535863758,
                -1.1038825581419167,
                -0.6144789204981712,
                -0.3563145864421111,
                0.23909387321194106,
                -0.7862071979154154,
                0.009189458503857072,
                0.3556958399580797,
                -0.8101017813635798,
                -1.6610843704458909,
                -0.620256639795962,
                -0.1412336548475494,
                0.4779571803544714,
                -0.37314802463877206,
                -1.1960778626102622,
                -0.3077371947994334,
                0.2418967392127717,
                -0.5994755954174986,
                -1.0155077974541997,
                -0.3730079017344713,
                0.13517247965388068,
                0.7937750359559885,
                0.27371496843601134,
                1.627480820984951,
                -1.3971424116602438,
                -0.5987023071754616,
                -0.2193238493028946,
                0.13984837782374662,
                0.35463162562931677,
                0.04963234737216597,
                -0.36209616349356893,
                0.11831910558084642,
                0.4225843515245289,
                -0.04806269281386775,
                0.9947177254038839,
                1.4091234303627604,
                0.8632650984703945,
                1.9751163378216587,
                -1.4189197152900042,
                -2.3728493383225544,
                1.5814586663353793,
                -0.639622088177961,
                0.7851493981132138,
                -0.3418910013406699,
                1.711632419445963,
                1.1115008353655307,
                2.6734193027305215,
                0.22331362835024993,
                -0.7416744339136719,
                -0.07048327890784772,
                0.7168527939151137,
                0.4666476223561881,
                1.2817457957919445,
                1.7012095212938896,
                0.04296536035427395,
                -0.5904522412765645,
                0.1464622525395742,
                0.40671750240507537,
                1.0093399185065406,
                1.091894133645528,
                1.5827199113989305,
                -0.8155814688748922,
                0.08380579238134207,
                -0.6468721019801243,
                0.7500850321297249,
                -0.7156223812757494,
                -0.6162617651174082,
                -0.6217467752218999,
                -0.8216419839185446,
                -2.009419913339656,
                0.5601810108776865,
                1.1756417727055453,
                -1.368879320567307,
                1.3013735953917525,
                0.7987664187768193,
                1.722280362156987,
                0.5022290514752783,
                -0.5365260500868227,
                2.039015319347259,
                -0.34299708039141125,
                0.6631679844453621,
                1.694762868692653,
                0.10749076732426412,
                -1.1076344623941388,
                -1.5668182497923382,
                -0.9093965642249188,
                1.0950712941630385,
                -0.5302282439858215,
                0.12003420112414999,
                -1.2068631626477588,
                0.24420262933765363,
                0.2865686619535877,
                -1.3468466327195807,
                1.0083450989024467,
                0.25436618151583945,
                0.7701776736289111,
                -1.1270015825903816,
                -0.721217579012893,
                -1.0317993263268215,
                -0.07850337063628406,
                -0.12761465743626738,
                -0.6656523591678634,
                -0.39447623498833767,
                -0.9473630130696834,
                -0.2513705755773801,
                -1.9386396614157586,
                -0.6256464696392675,
                0.39083001583625554,
                -1.0646160449909967,
                1.0206868268795035,
                0.35219676636220076,
                -0.15622511920243948,
                0.6876867123298063,
                0.6040751316788495,
                -0.3165699337312215,
                0.8782042220696333,
                0.3951680482589383,
                -0.8919547264779031,
                -1.526984390132288,
                0.17681702936870872,
                -0.06522991564950946,
                0.4038296777321561,
                0.8471483791618949,
                -1.9017371760933495,
                -1.2494387397814493,
                -0.003437831239132521,
                0.8229645345656532,
                0.31910404430091194,
                0.8981664017996207,
                0.25368196109166147,
                -0.7498467755710594,
                -0.016612011664769104,
                -1.3305303129447783,
                -1.1935625970972306,
                -0.7061300415936619,
                -0.6834670672123534,
                0.001196903728039311,
                -1.092034458646934,
                -0.8025516661970341,
                2.2131138410593034,
                0.009275806119553621,
                0.2747115533568698,
                0.015203806512378511,
                0.04132251071105595,
                1.3564213054190624,
                1.1421931276644324,
                -1.5149113300227548,
                -1.8825171836134165,
                -0.9246080915828494,
                -0.8596337356242352,
                2.181251863459029,
                0.28756559060066716,
                -0.13927634444924852,
                -1.0053091057115724,
                -0.8874957293312358,
                -2.1700950532542587,
                1.3635286135436986,
                0.44822046475022365,
                -0.969356602728606,
                1.842213251348486,
                -1.4101109279134194,
                0.1581862375957973,
                0.263378846295241,
                0.8432162673921784,
                0.7364313368486989,
                1.1192011303202736,
                1.3820654514158122,
                1.2864853488815267,
                -0.11843700294368614,
                -0.9668455347170228,
                -0.7924856238811321,
                -0.0024497004508168734,
                0.1436689913653761,
                0.9761487698353238,
                -1.2787795299592573,
                -1.138985475077049,
                1.1724975670074778,
                0.6115321845645936,
                -0.9522349663676499,
                2.702945920759117,
                0.525277771066804,
                -1.0526154740898794,
                1.5158266526940374,
                1.9165684784935049,
                0.031802944717816216,
                1.5021146159888863,
                0.8593214236608193,
                -0.19901516828056345,
                2.569055281903894,
                -0.009659466292585017,
                -0.896739885401826,
                1.2455637810683946,
                0.6118264597809334,
                -0.020838999233162108,
                0.5512666752802613,
                -0.039949693649281026,
                -1.329036578999862,
                -0.017199838438106855,
                -0.6637630878607914,
                0.5037526780324005,
                -1.7180705732121684,
                -0.25119819557393025,
                -0.3773324464933515,
                1.6557315255116907,
                -1.3908346300193328,
                -0.08985341354193473,
                -1.7041858714651992,
                -2.2012418289705145,
                0.11558072404764536,
                -0.8063652224484691,
                -0.6078214900335203,
                -0.2008808785342182,
                1.449164777492745,
                -1.2955455830146105,
                -1.2684519104223042,
                0.3521366576466445,
                0.3450501739863389,
                0.4552313715864671,
                -0.7230306158742946,
                -0.16307169617363731,
                0.34224725415805246,
                -0.20323010091521881,
                0.9258971123439551,
                -0.4818508944606682,
                -1.382367927513087,
                0.1654519466421605,
                -1.0617366435556606,
                0.09414542380463081,
                -0.27590601706835954,
                -0.6425212869020887,
                1.3496628352481335,
                -1.0750877823944984,
                0.06663693580827192,
                0.30102754436577134,
                0.6755917938838684,
                0.8140188387377717,
                0.3246964829674817,
                0.6242613420489507,
                -0.7109192586274363,
                -0.6179307725438964,
                -0.45195457484650936,
                -1.438920770765901,
                0.12378642842527984,
                0.1051113717192495,
                -0.9153693381195614,
                -0.28643411003503144,
                -0.08782322443262947,
                0.02823982272327245,
                0.7933609485425518,
                -0.45434923567659596,
                -1.7020177904084095,
                0.0667627935858199,
                -0.9883512132251276,
                0.5104231905898585,
                -0.6212507064051945,
                -0.3782715953798657,
                -0.4676923489288525,
                0.601526267926539,
                -0.17630132191053519,
                -2.1929535883623377,
                -0.08431439576566682,
                0.5370495032156464,
                0.9877220179295289,
                2.213956681919337,
                -0.188982356669951,
                -1.2800946255766716,
                0.9936235035605948,
                0.04686482462462475,
                0.15022149678366,
                0.8878088657558761,
                -0.12640195660967207,
                0.8515379173471277,
                -2.074273006968836,
                -0.13566567939605603,
                1.8916514632235906,
                0.7248816377540047,
                1.4822030512275497,
                -0.09921656084980619,
                -1.8529685821672166,
                -0.9961156374150376,
                0.7110467152366837,
                -1.053878351193063,
                1.2115109639209194,
                -1.7991490514489668,
                -1.7482416978552482,
                -0.9312257285462413,
                -1.9756863297957783,
                -1.329088883013557,
                -0.7863099880755597,
                -1.3066277500545487,
                -0.141329998495893,
                -0.08565999220410145,
                0.2190308308979477,
                -0.47173530927606383,
                1.1401895433733227,
                -1.0322391789164722,
                0.2646503045746423,
                1.2054948025333727,
                -0.17022300915365124,
                -0.32422553756801653,
                -0.45054564323426444,
                0.07261519083579963,
                0.9266860711735188,
                0.03936987965972591,
                -0.3278507505402366,
                1.0655482539123173,
                -0.4870766480701877,
                0.8575049223283925,
                -1.5179861836228732,
                -0.5797191554689722,
                0.8209146824924868,
                -0.34952836419762945,
                -0.6381291475316083,
                -0.2541470101604859,
                -0.40215959052586625,
                -0.4802716891054762,
                -1.4847564065076106,
                0.14879496121275712,
                0.33461894376560625,
                0.704105424783382,
                2.7079328150084288,
                -0.7758314210266688,
                -0.5504276987187715,
                0.3074701811641201,
                0.5951056698257821,
                0.8491002154362606,
                0.30648650179316933,
                1.4460821088606166,
                1.5568089906070353,
                -0.028789255834167273,
                -0.6909886135955168,
                0.25492706735218607,
                -1.5534099659122678,
                0.6550841666785461,
                -0.11079606281120957,
                0.5226682386453774,
                -0.16123918238401996,
                2.1286245166274367,
                -1.537730749498389,
                -1.8974257468185556,
                -1.8677671919652439,
                -0.5421039246189311,
                -1.0979381888771758,
                -1.4033631007154095,
                -1.4046537977676339,
                -0.26124934674470196,
                0.5647807135463658,
                -0.7813726872326218,
                0.19160594075669984,
                -0.6804520354799798,
                0.051658665647450204,
                -0.5408849270034601,
                -0.781703043054096,
                1.4095266154114314,
                -0.03350651619891053,
                0.7594776729279574,
                -1.1972025636862083,
                1.6152689430014198,
                -0.2969032199195617,
                -0.2295299838117813,
                -1.8441583245827822,
                -0.32826670895179344,
                -0.3243557537230611,
                0.7994997139142358,
                0.6686270458605457,
                -1.7319127211137262,
                -0.3985523926934835,
                -0.5723215627055782,
                -0.9006604365187436,
                -0.2699982070108726,
                0.7688659243390571,
                -0.26853943414961146,
                -0.14594909385897828,
                0.06587578581895784,
                -1.5697371877762338,
                0.2916617636191879,
                0.7979882249262116,
                -0.06564493014246645,
                1.304908223434895,
                0.5480877888671137,
                0.3189296405335537,
                0.4362910246782854,
                -0.9825734994482566,
                -1.0285112459402508,
                0.5417186468708273,
                -1.265799685307951,
                -0.8771771120410458,
                0.1781268482251895,
                0.35629636822102373,
                -0.30322511978529926,
                -1.4895281978412858,
                0.805894854934481,
                -0.16750914711097553,
                -0.7702896244608605,
                -0.33082901460956327,
                0.41186044266607463,
                0.8537224909181069,
                -0.5108668750352665,
                -0.9640944803648742,
                -2.1433344457308245,
                -0.38865751240107926,
                -0.21273600387553018,
                -0.2041149022498297,
                0.2601876901970585,
                -0.5119007976875961,
                -0.3154827663091865,
                -0.7629352986752833,
                -0.27380790995792686,
                1.279849518223126,
                0.7374455675871574,
                -0.7681098228463327,
                0.855057858566089,
                -1.1249516089189373,
                2.481608798620324,
                -0.5437501565871674,
                0.5294792093145574,
                -0.26170816086318804,
                -0.6764550135870654,
                -1.2210612573453716,
                0.33238683585397394,
                0.40678780222067223,
                1.4789627753066443,
                -0.4934019957199456,
                0.8596905952868752,
                -1.640146626914728,
                -1.6342061489303255,
                -0.7053857084133636,
                0.1406577445432267,
                -1.3705179341803508,
                0.05288614355460261,
                2.4212704000906884,
                0.5064369408621606,
                -1.7897930074613535,
                0.9836468848415224,
                -1.2851577110863917,
                -0.4518063217120024,
                -1.1151310869781608,
                -0.8977635691372128,
                1.9568660939798634,
                0.3455921789190622,
                0.9426674672872102,
                -0.0921819953854854,
                0.3886423053930193,
                -1.7279859797064585,
                -1.6341335054442379,
                -0.06887986416309946,
                1.2239541095275541,
                -0.587055058547298,
                -0.1072315044712244,
                0.6395679406186622,
                3.367244100386943,
                1.1159535770090354,
                1.3580505900426778,
                0.9446730907014401,
                -2.425432522239455,
                -0.18306047153940389,
                1.033853787231741,
                0.09604000204810756,
                2.2895712572782916,
                -1.2390763201255108,
                -0.2639665994966216,
                -2.169792232119677,
                0.604145486168346,
                1.5653474315641907,
                0.7253323965372893,
                -0.30291769114152844,
                -2.262102341037857,
                1.0629185483640962,
                0.02775590456552072,
                -0.5440156469165794,
                0.1062486463091376,
                -2.3694935518931253,
                0.8019617526038855,
                -1.0632778818328708,
                1.2640811363967936,
                -0.5746281043515745,
                -0.44467367366534816,
                -1.2384644226482044,
                -0.441390902152603,
                0.20112850774728844,
                1.7719396427215772,
                0.5783350586870633,
                0.3141255825599442,
                0.7494564968200936,
                0.6779054703699571,
                0.750730196567638,
                -1.5580923027302784,
                0.9368428589623401,
                0.11010013919033756,
                0.27434711613116564,
                0.007525003574948476,
                -0.7421631723111719,
                2.6340486826596052,
                -1.0217316385186868,
                -0.2674878715121173,
                -1.6912378444679679,
                0.025978556795529698,
                -0.06015284139619246,
                -1.0427636307821775,
                0.5979658028875712,
                0.06162968234326865,
                0.35783144596913513,
                1.2291707807239405,
                0.8670545405201513,
                0.17584127893919083,
                -1.9065879574693496,
                1.71535609160924,
                0.2621197222833926,
                -0.64419163356095,
                0.6855816158087977,
                -0.16299043153976803,
                -0.5016464874023461,
                0.03874327303458596,
                -1.80804457453083,
                -1.1075312908578736,
                1.4466872468706498,
                -0.4539880678661356,
                -0.469835099918563,
                -0.5647409261486251,
                -0.39069343861693984,
                -0.17639697790144823,
                0.21649921983335707,
                -1.419606158254319,
                -1.261877931742755,
                -1.5613510092281504,
                0.49125539869784657,
                -1.0386881196120552,
                0.17948996940997888,
                -0.45620472248894584,
                1.1266187178679974,
                0.431228655047774,
                1.2930722563624935,
                -0.1098028313713468,
                -0.25803323963133723,
                -2.113437680870016,
                1.5646486320240827,
                -0.41258911713032215,
                -0.05877106625864493,
                1.3014857904682557,
                0.8227110409302523,
                -1.0368780318680406,
                -0.4770040956639513,
                2.382143913767811,
                -0.7710002272976817,
                -1.0902575829865653,
                -0.4918193401711127,
                -0.635488323591356,
                -0.7447180347921569,
                -1.0450455836186874,
                0.1569750179787186,
                0.055634659502705304,
                1.1491566927691172,
                -0.3280518098540991,
                -1.3027605402615572,
                -0.6273773960176943,
                -0.920685553643266,
                0.03892410418187073,
                -0.6708581385602874,
                0.7067896302834105,
                -1.767175421868997,
                0.24964437005582787,
                0.8905226369243515,
                -0.9678928491976322,
                1.3037960492013498,
                1.1731197297336684,
                -0.8244301025952865,
                -0.5452128228567219,
                0.14892969723723617,
                -2.364605289640568,
                0.3785090843282875,
                0.4784989044358067,
                1.0858134735961675,
                -2.2446708291869353,
                -1.3479482414066413,
                -0.6532879338761659,
                -0.40959400301434734,
                -0.8601129127365409,
                -0.25043544178811844,
                -0.41540002703296774,
                1.5839485412305783,
                1.6697539078098451,
                -0.7278692674355697,
                -1.3116879886599588,
                -0.2785224233413476,
                -0.4096465779428845,
                0.5441840826740132,
                -0.23396229578361205,
                -0.7044853792281042,
                -1.0377747831075677,
                0.4804767188685038,
                0.8934781940884183,
                0.9893942866661617,
                0.7353302854285833,
                -0.5433250951253742,
                -1.1995098475032318,
                0.7598204082944757,
                0.7009572289695873,
                0.568139505221389,
                -0.006845104465525442,
                1.835168861022158,
                -0.9857509951419042,
                0.2326382063685778,
                0.1486270599411959,
                0.3298748518719176,
                -0.4462121599224064,
                0.4329426721280452,
                -0.2535860584964428,
                -0.5282139678431358,
                0.13482514459504696,
                0.6428724549593942,
                -0.8853761930199275,
                0.3575778048903241,
                0.8441726946997128,
                -0.48757549515993664,
                -2.065143875471048,
                -0.8455136292956578,
                0.844817348070598,
                0.5633423707469042,
                0.7828384493892024,
                0.6851998258848822,
                0.4462276877064523,
                -0.14907398672176927,
                -0.19639922752660077,
                0.22167780516919755,
                -0.28351790281070066,
                -1.2206952761144154,
                0.2377867014140077,
                -0.047216645096134095,
                -0.40579257680492,
                0.09179491767870687,
                0.9119757020069291,
                0.7645391043824549,
                -1.5269024418447519,
                0.1592853122974766,
                -0.2054180275191684,
                -2.74335681235639,
                0.7850188592265044,
                1.3870505260950359,
                1.5628700654727192,
                -1.307302582381515,
                -0.789494817025674,
                0.9474897287197017,
                1.6261836380082417,
                -0.6033902542549514,
                1.2260323491260432,
                -0.25622846925903964,
                -0.08579680772029549,
                0.9794590853602878,
                1.1070825709922105,
                -0.7679812703532399,
                -2.5546435189394647,
                -0.20942597100889898,
                0.24995107592427135,
                -0.18135440196972022,
                -0.2232683670373412,
                -0.8880810899445197,
                0.09607941938468816,
                -1.5322086369582077,
                -0.5375194241865626,
                -0.3883309779166724,
                0.49755525401069645,
                0.42009921541064466,
                0.43708268882381807,
                -0.11464693649098526,
                0.9354255348287819,
                -0.9970366587964955,
                -1.089056815544804,
                -0.8151316358338792,
                0.852522978511425,
                -1.6540753746912604,
                0.5442724978554243,
                0.1191731931325465,
                -0.2264822135762745,
                -0.4299769244855406,
                -0.33834865209740805,
                0.06009138460005508,
                -1.1249645770168337,
                -1.3713815927966715,
                1.7965341596614683,
                0.9187725590373437,
                0.6862758414269732,
                -1.1328265906798645,
                -0.20988945013235344,
                -0.5816822110917402,
                -0.17911401583800635,
                0.030555323586662485,
                -0.4316701003292998,
                1.3647650636520203,
                -0.7863157160081299,
                0.10186669863143018,
                -1.018973348813201,
                1.4657476158808425,
                -0.26704810979975463,
                0.11465975274432706,
                0.42296429091402465,
                0.09778069718647635,
                0.3020633240487877,
                0.43616734772361493,
                0.7927957489749407,
                0.3856964836888608,
                0.7628989416259151,
                -0.2553736063011301,
                -0.8602762273741122,
                0.6219803770698756,
                -0.11925667511020682,
                -0.054783900494427044,
                0.14231136754754298,
                0.9848493364489007,
                1.3181295480063775,
                -1.5434105078338365,
                0.8869512670922214,
                1.8832451334938438,
                1.1912185462031675,
                1.0037877628905039,
                0.8636992911555805,
                0.46873629805711514
            ],
            [
                -0.3961867035129204,
                0.022078317248018838,
                -0.5150286908960118,
                0.11967374072464933,
                -0.20687604759110143,
                0.9343821834679826,
                -1.1203259917136232,
                -1.0439459015053316,
                0.6071836453545871,
                -1.4174285168260983,
                -1.1505254650949022,
                1.2877115315253873,
                1.2101911988838703,
                -0.5408240996741854,
                -1.7441069202715191,
                0.13231891782313818,
                0.8124038549367306,
                -0.09625764483113888,
                -1.9405830544089226,
                0.049627531341761004,
                0.9847411909880741,
                -1.1178961386969308,
                -0.9149635273255807,
                0.8657701085672352,
                0.9529968816374284,
                1.7295462242795043,
                -0.15221754728944423,
                -0.5009244181404061,
                1.795258839295879,
                -0.5353043812378799,
                -0.6167004467388157,
                0.8851130545965333,
                -2.1036629841916,
                0.11134342580206275,
                1.034305700744547,
                -0.8898386929197075,
                1.0698378193577023,
                0.37235855979944954,
                1.898988900110941,
                -0.5979509084334763,
                -1.1210285833241116,
                0.2743502164657994,
                1.568219598262236,
                -0.7487216771955749,
                0.6029099134686678,
                1.3501412838732705,
                -1.1854765117795618,
                -0.2661708702950543,
                0.332778803837315,
                -1.5220068169515533,
                1.4229482463860315,
                1.4852525571978648,
                -0.025742224589264482,
                0.030946999811177347,
                -0.49467938517269033,
                -0.7649666557692273,
                0.5795915942527916,
                -1.2878614271695636,
                -0.2583805495916135,
                0.31637519711876955,
                -1.1133345594403734,
                -1.4012671369848972,
                1.1045334103309774,
                0.3513450244387922,
                0.3205511092354062,
                0.5444042979729509,
                0.028065736222052606,
                0.11202819464731051,
                0.10337372906359166,
                -2.8660515706603755,
                -0.1521221177771225,
                0.33526757453190054,
                -0.1566225522264014,
                0.5946812413692028,
                1.074154660030081,
                0.22671141410903708,
                -0.8552856039534288,
                -0.42118388731027195,
                -0.4082540049486146,
                -1.7516973866660077,
                -0.5616845526752048,
                0.4502590710606287,
                0.6225550726668492,
                -1.4652453401269019,
                0.8067626980635508,
                -0.5609128279299623,
                -0.6681259288841379,
                -1.3188895677679333,
                0.5798051629495802,
                -0.4943382166061296,
                0.3927309924628233,
                0.24497662074240098,
                -0.11737954668088063,
                0.26761043445634347,
                -0.5847090267268807,
                -0.1289689063316463,
                -0.5329303431254855,
                -1.9872726974714712,
                1.035126614931605,
                1.4050644991162868,
                0.7569324869036,
                1.0440355335983167,
                0.4448480379176527,
                2.5234567854023937,
                0.5370093219444129,
                0.585970316259575,
                1.00318231179681,
                -0.868822488822554,
                0.6140137159378288,
                0.7490178155998709,
                -0.2000891136481584,
                -1.0759223737460712,
                -1.3061561049924704,
                -0.13220525669154848,
                -2.3641846807386155,
                -0.5149541933238861,
                0.5667168563194436,
                1.6135452974289386,
                0.1703400985863943,
                1.4887392455120954,
                0.5891074759479134,
                0.7569127346381286,
                -0.29135122160725846,
                -0.7807646262334843,
                -1.3599439073906068,
                2.077646272894284,
                -0.8558232551633158,
                -0.3720634742618219,
                -0.21846410845757502,
                0.2655315364328078,
                -0.9056197845206271,
                -1.646561431396775,
                1.8527070845644216,
                -0.262627730442497,
                -0.15863240086458988,
                0.036155901998416846,
                -1.9700238291839052,
                0.6277752521830599,
                0.9298158480025587,
                0.22370097678729117,
                -0.40577043811699376,
                0.8923238215822059,
                0.2854191261530472,
                -0.9628550862635284,
                1.2584093146934987,
                0.56500163013282,
                1.117706303788542,
                -0.2621901675763934,
                0.05203022368958373,
                1.0874209401958594,
                0.0403625488744173,
                0.16166423169709185,
                -0.37620261171005054,
                0.04411555885654236,
                -0.12349139211626059,
                -0.6675929558037315,
                0.2924076915751561,
                -0.13710337794170493,
                -0.5320936374667976,
                -0.23510467176536537,
                -1.5192253947831353,
                1.7898032791241314,
                1.135269779554704,
                0.5029117807869744,
                2.00231191778338,
                2.164901335620114,
                -0.8406349668065602,
                -0.07799632350511031,
                -0.7162381401808431,
                -0.337031017344293,
                -1.104592975323088,
                -0.14401456297421733,
                -0.3890141983964926,
                1.3080687392570667,
                -0.8347343972662845,
                0.5071728145034773,
                -0.5180416176032349,
                0.47092824557565804,
                0.9836254646674283,
                -0.12635315552700147,
                -1.8985554457048526,
                -0.22230479891536625,
                -0.8141719861567104,
                -0.2624439973790149,
                0.8778766213910596,
                -2.108827008243091,
                1.8367058494470851,
                -0.8325998090116644,
                -0.40373884733191695,
                -0.6285350330867964,
                -0.6870929878824524,
                -0.6976344252367328,
                0.30649726634483315,
                -0.2874229279737716,
                0.17836868626797023,
                -0.4921328412026459,
                0.06030320845846503,
                -0.05206883381481349,
                0.2733668040281703,
                -0.7285221099731248,
                -1.6447728583763674,
                -0.5650047765408501,
                1.9821517481875612,
                -0.4910920733411365,
                1.7033615201781074,
                1.5132440619567928,
                0.8821335081695076,
                0.6696743695507238,
                0.28917420802916655,
                -1.9357583885347676,
                -0.9645924267959293,
                -1.1391702914491202,
                -0.769966681451951,
                -1.1755320699432377,
                -1.215636861960678,
                0.29653519969159314,
                -1.40475226042207,
                -0.5109649306537447,
                0.1273066206596717,
                0.3421669700326357,
                -1.2035966246639207,
                -0.09661616660570073,
                0.3722557235079254,
                1.3866053672484886,
                0.4774203747054964,
                -1.5753770792079211,
                0.3489233106021049,
                -0.7470251660812652,
                1.1264889301658079,
                -1.6911961755574945,
                0.3612647374744795,
                0.35942102724510855,
                -0.8197512509409355,
                1.5131019183670718,
                0.17306028217694389,
                1.1456562807168835,
                1.2162949148036974,
                -1.8758457986213846,
                -0.6292954535254413,
                1.611133197056071,
                1.9238884642986862,
                0.15261334638950774,
                -1.6722522005975626,
                -0.34417110696046765,
                0.40089435397000694,
                -2.4393760745606206,
                0.7202850328168409,
                -1.0064399144960228,
                -2.351948379991937,
                2.1152941934654867,
                -0.2740528586685972,
                0.08749194528329711,
                1.4866290522654724,
                -0.6877420397278311,
                -0.7192153305969816,
                0.35838139776199446,
                -0.2676854072595059,
                0.5590840388428753,
                -0.8606176445398384,
                -1.011615061416844,
                -0.17890698817306885,
                -0.4710247902276041,
                0.4261649173634347,
                0.14906391097659488,
                -1.9161049512644828,
                1.459328536469517,
                2.019700715517797,
                1.095434347765904,
                2.3660532838717008,
                1.1292862649183797,
                -1.2297535404053257,
                -1.2926861090756077,
                -0.6595559990311938,
                -2.200516677168199,
                -1.6826117404876457,
                1.1442766633933246,
                0.41591045107107544,
                -1.9174449773849331,
                -1.1807811200221365,
                -0.02198825902375807,
                1.5195610977544525,
                -0.0922730280750097,
                -0.5650945199685139,
                0.3253599524355356,
                0.020411520585590148,
                0.738173063353186,
                0.5255804457965997,
                -1.675217585284787,
                -0.003528079009779823,
                0.07280480544822912,
                0.5214475938908656,
                1.1068810637791617,
                1.2630401689532096,
                3.258309454989651,
                0.6871946723567379,
                1.418017738496795,
                1.2891803134198283,
                -1.4951333590257798,
                -1.2648298080010356,
                -1.369565225529606,
                -0.06451999298736333,
                1.0926676163062037,
                -0.45683721208906497,
                0.19867088849975756,
                0.7346612209762715,
                -0.2365587779587543,
                -1.0048958843857034,
                -1.0853150899484758,
                0.7688442559490557,
                0.0814648542882715,
                1.8755035889083382,
                0.14241007146857224,
                -0.034804773669619204,
                -0.3710050458016776,
                0.9208774612952283,
                0.12537048671256035,
                0.02690965827355366,
                -0.4951962437629048,
                1.3549595617614965,
                0.8869683910131125,
                -0.6930985786315706,
                1.0592590529772106,
                0.8492251532578268,
                1.2036630173800384,
                -0.06225188243199626,
                -2.024490137757047,
                1.0912649160614076,
                -0.35944623340956056,
                -0.3228471795129358,
                -0.9906353378451676,
                -1.0307598223294254,
                -0.6562662972733965,
                -0.789581122633291,
                -0.7075401005581662,
                0.13061813235674097,
                -1.5926994819940599,
                0.0415345854732485,
                -0.7729286268691437,
                0.23695829659519052,
                -2.050004483965731,
                -0.895604474606957,
                0.7685783374477348,
                -1.239598458088995,
                -0.6679558695298671,
                -1.7715098505233322,
                -0.8863495801315195,
                1.4977299533373103,
                1.7097818658114141,
                0.8725866654020341,
                -0.3477754450775865,
                -0.08789509527632544,
                -1.487466980338508,
                -1.3940294506140376,
                0.40560688583404814,
                0.998275590248307,
                0.14899939389186387,
                0.24722409077610139,
                0.7515354170311944,
                0.7685582120131501,
                0.795298482730259,
                0.6361508590502891,
                0.45001666793968037,
                -0.4343831615603407,
                -0.9263535857994142,
                0.7890576161114075,
                0.5211241020681183,
                -0.8866479815319898,
                -0.09483350156625923,
                -0.5250891877064126,
                1.6173065632468164,
                0.21679855776148796,
                1.026991023091961,
                0.30549474538275867,
                -0.32900481435216394,
                0.43399363598491847,
                -0.0517208935739549,
                0.6450266799780214,
                1.256335651286962,
                0.8758370061156792,
                1.755583043279042,
                -1.3656842369600655,
                -1.2687234744867768,
                0.33249333231216666,
                1.1787654161087064,
                -0.32618466418402936,
                -0.4514525764447823,
                0.5913160986794543,
                0.025867165398108814,
                -0.5983010311611847,
                -1.01492765519101,
                0.7874515417508651,
                -0.3165151191529119,
                -0.7470088184261573,
                1.1013315393055978,
                0.6309105345406276,
                0.580331697820627,
                -1.7469798453251955,
                -2.5632429403662265,
                -0.39048762106886353,
                -0.3235033312778427,
                0.1464512034727746,
                -2.152728151264092,
                1.5953844849878824,
                -0.032256738300645335,
                -0.622348016320838,
                0.6548360323545259,
                -0.46837434939439304,
                -0.7671012776098359,
                -0.4571864305869458,
                1.3767171805842244,
                1.4907088528481294,
                2.405387614878799,
                1.0202730692271917,
                0.3582019033619377,
                0.2427358522864988,
                0.9807236587205932,
                0.28511549763304095,
                -2.29370817257079,
                -0.36281445138412777,
                -0.7353066318681772,
                0.4201929207887146,
                0.213141172629766,
                -0.8637131328815427,
                1.4153509847125882,
                -0.8915000834213174,
                0.04877752943312014,
                -0.08258907629111895,
                1.2163786186911572,
                -0.19290267391377572,
                2.0599353086378343,
                0.7365419526704616,
                -0.2710020315621921,
                1.3481914208291292,
                -0.13187919247694743,
                0.4979226426206064,
                -0.40446886521828807,
                -0.4843953087386875,
                0.8097011376978336,
                -2.226674987287374,
                0.7726818507564845,
                1.445653785303669,
                -0.17686848410678216,
                -0.6929771039327128,
                1.3285928951134147,
                -0.6343381866073476,
                -0.9294687891291608,
                1.8305997307298703,
                -0.42237582943622964,
                -0.8034524502736333,
                -0.7493658000367469,
                -0.07405577733795529,
                -0.005515804267184415,
                -0.2657002205290622,
                -0.646295614440865,
                0.5019995386470092,
                1.2317426409628751,
                0.7085523515344155,
                -0.374539682396301,
                0.42600290836054977,
                0.576123617825302,
                0.07561794917391222,
                0.9578668449050954,
                0.0867493844239033,
                -0.6755974732954871,
                0.6186713662658946,
                1.6110472151489867,
                0.6843216490891003,
                0.9039704825747167,
                0.2561873433649375,
                0.8003933015355446,
                1.3152683746404001,
                -0.13458329330112223,
                -1.5869269317831807,
                0.007424972675640497,
                -2.493235187662915,
                1.324491704962083,
                0.5691836649904606,
                0.9947061569118262,
                -0.16838618641827896,
                -1.1024665846676531,
                -0.7351085637279215,
                1.0091274793302327,
                -0.5933716261179937,
                0.860381942302361,
                -0.11633684756625545,
                2.114764885580599,
                1.762103488009075,
                0.31312921583798003,
                0.11814562375614586,
                0.6496530115416062,
                1.1747351488240148,
                1.4719185825766548,
                0.452547890880758,
                -0.15821783476943185,
                -0.6220564742127297,
                0.46186881252179574,
                0.29508985581546243,
                -0.8461395609421687,
                -0.10766316971055201,
                -0.21019640454647107,
                1.1255078808272552,
                2.06992681596035,
                0.5074149299932906,
                1.0682247619721252,
                1.6909683286137254,
                -0.43044291133456636,
                -0.17330336143514846,
                -0.6154184698882577,
                -1.141207129763268,
                -1.7168258101515166,
                -1.2528816356593195,
                -0.5080698488682511,
                -0.2699105801679334,
                0.606512014396476,
                -0.6861435000248144,
                0.9894978106599537,
                1.0774375342605957,
                1.324996541594604,
                0.34595042195940573,
                0.7256754719841998,
                1.8568920583998512,
                1.8625692550150514,
                1.3393020332964907,
                0.08507780308443134,
                -1.3952847910018968,
                -0.1837571018305525,
                2.1340927954983973,
                0.6033825992275306,
                1.9760261144928188,
                -0.09855270572084741,
                1.171792143352496,
                -0.37450119454990377,
                -1.1010148878236135,
                -0.5392417926181928,
                -0.3088459572553684,
                0.4567120113958785,
                -0.3151485719634677,
                -0.06793941045884742,
                0.6139873820413538,
                -0.5829566586651547,
                -1.2698632429302903,
                -0.02765934833325617,
                0.44440437657817394,
                3.2433902094534828,
                0.1265540104506803,
                0.35822760888819377,
                -1.2227705091207357,
                1.503712245441233,
                -0.15395160757579918,
                0.04062406687036871,
                -1.197316400234132,
                2.083216511277454,
                0.5303283923575998,
                -0.5989070487412045,
                -0.9005081351698562,
                -0.022081250070743286,
                0.6595872503916502,
                0.9154494762236243,
                0.22431662071125602,
                1.1032774373561334,
                -0.9215544489797364,
                0.27042553310840073,
                -0.21402994180456592,
                0.5251915309418139,
                -1.074448981749386,
                0.0017842404525418708,
                -0.5756724747591845,
                0.9429472580891064,
                -1.0798367645203675,
                0.5850831942574137,
                0.6688314165686581,
                -0.5503620270105869,
                -0.666414436599931,
                0.44382453774061603,
                0.5236206077873199,
                1.697007056298931,
                -2.102291694635953,
                1.471781157556158,
                -0.6353907076175526,
                0.1419398126649214,
                0.17716817058331727,
                -0.5248082116222862,
                0.9516235657206789,
                1.6502696656777653,
                0.37550979186884265,
                -1.652998587122014,
                0.4078238085420276,
                1.0187520715955616,
                -0.8600096279919434,
                0.8301060985471895,
                0.2756879258526574,
                -0.445997901812191,
                -0.45501424843250243,
                0.6231296022728163,
                -0.01852089481694558,
                1.2065362300158209,
                0.20508834105505055,
                -1.2070263235487586,
                0.2000709299259795,
                0.21850382062279217,
                0.004107097231639741,
                -0.6413897656873854,
                0.14965422006801865,
                0.49637811682684935,
                0.9217103352992875,
                -1.4364639870638454,
                1.7624970677941372,
                0.31934290744988003,
                -0.07507533873672449,
                -0.10929829732262304,
                -0.3888962939393558,
                2.428970743775766,
                0.0872122470594891,
                -2.1858331233828023,
                -1.773089185373829,
                -0.4724030748228801,
                -0.43412315221006353,
                -0.742876036558199,
                -0.5171981075429495,
                -1.3391256165199203,
                -1.634440498754889,
                0.17680707697181466,
                0.061424916740310025,
                -0.10207777337332026,
                -2.1410654045666035,
                -0.4967235722591117,
                -0.44276213693484817,
                0.8187025456796279,
                1.5489499302871306,
                -0.9534170507641362,
                0.182571563792289,
                -2.9735613393817624,
                -0.7796501529099611,
                -1.4809199898164511,
                0.7306908916112981,
                -0.6552937659250472,
                1.7162455038924842,
                0.07276370132349702,
                0.4879555950050388,
                0.7412282023497636,
                -0.5685386937038502,
                -2.2095150822647738,
                0.49535987161518147,
                0.37359843032678314,
                -0.7033125137802827,
                0.8416686275588117,
                0.0014983028077814415,
                0.17388276543365033,
                0.17962052983857094,
                0.5038883292943621,
                -1.8866052796187684,
                1.3101456979335582,
                -0.6566069221430285,
                1.7786045513673945,
                -0.12365442374179644,
                1.7724777283065893,
                1.8056443779466547,
                2.258096537340914,
                1.0589015141768063,
                -0.7752514280146064,
                -0.3942922060516889,
                -0.31530401229821603,
                -0.6925075661203669,
                1.690914366814168,
                -0.8832344555168686,
                0.4012476861151699,
                -0.6649281447527506,
                0.5285458547753484,
                0.6703447595125892,
                0.35406586789242106,
                0.5164488767413701,
                -0.12427641952086511,
                0.3772776499100883,
                1.2280012641128017,
                -0.7545198162766051,
                -0.48744078163291416,
                0.7659398796342717,
                0.2273331471951286,
                0.5794919781267223,
                0.6978543748473223,
                0.6728657381280041,
                0.7377825372445108,
                -0.6556563331431773,
                0.23188776035328143,
                1.7007394838543983,
                -0.8731417346669391,
                -0.0815495683220155,
                -0.9370054887945953,
                -0.8847444399215758,
                -0.45801450742538974,
                1.6437417387279636,
                0.8276521533334762,
                0.3727868282182763,
                -0.4741510978082924,
                -2.074931076694687,
                1.4450418701694518,
                0.006866448609702146,
                -0.5510140023198121,
                0.14253728624677153,
                -0.028021474925343594,
                1.470495868092101,
                -0.4147162677257339,
                0.055617418770596776,
                0.35292356281981707,
                -0.709997110809254,
                -0.100761135485161,
                -0.49748987499238867,
                -1.6859283541512675,
                -0.8859687677230589,
                0.6803081442068389,
                0.02643336678605232,
                0.2550693981959971,
                1.0201259401929446,
                -0.07970459638438815,
                -0.014544490968910102,
                1.0183810722481799,
                -1.91044270959741,
                0.5583829556949093,
                0.8269594710925217,
                -0.053509817542027736,
                1.7441945162058599,
                0.4990003786244437,
                1.0234315203466895,
                0.02464692837083444,
                1.5745678030473846,
                -0.11573148217121076,
                1.7341503539651204,
                -0.3687848155698554,
                -1.2402426313506638,
                -0.5413887435416932,
                0.1683971838118825,
                -0.26301940409568186,
                -0.694466259835306,
                0.6182067747093527,
                0.7916933047205637,
                1.176486246505627,
                -0.8329200571263393,
                -0.5967077234959175,
                -1.3807290053893675,
                0.29833855093328593,
                1.2416268656908644,
                -1.8779638504850285,
                -0.301703922990829,
                1.9448149549923566,
                1.139429384404873,
                -0.9431996740980898,
                -1.3268511642759668,
                -0.3896169829119322,
                0.26051573462658745,
                -0.41724128255296894,
                0.5440881280191032,
                -1.0103966856950441,
                0.6068952355729268,
                1.3172685952977354,
                -1.2301321572192923,
                0.536919508568596,
                -1.3488094198693066,
                -0.9569277268714421,
                0.35317985520862855,
                0.1979686873990253,
                0.8325887008529056,
                -1.3756352603179867,
                0.7716487231145951,
                0.546621628183759,
                0.8315094398356464,
                0.7794109951230713,
                0.35621031753843674,
                -1.0779434061464686,
                -0.31055850889656095,
                -1.2504042848841241,
                -0.7220813592516012,
                -0.6830865459554412,
                -0.7061150466043468,
                -1.8977264723281535,
                -1.1986359206377075,
                -1.1369725836779792,
                0.09910220292364702,
                0.8443958125850869,
                0.30182759264383224,
                -0.3902883268117588,
                1.4802879275110452,
                0.5497603845268351,
                -0.00891519815438228,
                0.22722736374819716
            ],
            [
                0.7195438103333972,
                0.5965997591431095,
                -0.4625984236503765,
                -0.0027960701369033007,
                -1.7525741714322767,
                0.11027050601488422,
                0.7078829424475028,
                -2.8324595335051965,
                -1.5238838059412398,
                -1.4089174291493192,
                0.49702212259578504,
                -0.8845691833997742,
                -0.1711067492847555,
                -0.825872457877547,
                -0.11536448527159344,
                -1.7475958346494422,
                1.1321487384340438,
                1.8525847510775433,
                1.9287541679201554,
                0.5577799820698134,
                -0.21322423337465563,
                1.5723474573655687,
                0.931529978733862,
                0.10487153541704115,
                0.7932230090488054,
                -0.956112344467676,
                -0.5671329386872752,
                1.5528212374416683,
                0.3436368294910013,
                0.18056424644464733,
                0.5961616149165785,
                0.9405949977387762,
                -0.40015309349992123,
                0.7024026204188526,
                -1.1157230145487356,
                -0.617670918456087,
                -1.1617338962560566,
                -0.40459773465083604,
                -0.013502726194862308,
                -1.8680965903204536,
                -0.10961890646087415,
                0.6039902110188582,
                1.5958615915554903,
                -1.4640391553062815,
                -0.5837909664361309,
                -0.5036907496567766,
                -0.9362513969706532,
                -0.9136040831548194,
                0.026555139956874856,
                -0.8191406049835015,
                -0.953302055677465,
                -0.7661659864137899,
                -1.0357482401862772,
                1.0957235302750135,
                -0.22984391004615953,
                1.3676244335969718,
                0.12943174718719244,
                -0.9703351743663129,
                0.3309730319658276,
                0.13044408882512085,
                -0.7032101890610475,
                0.44462723560432243,
                -0.6493069932677118,
                -1.0121697237553011,
                1.545821418856774,
                -2.102547854010465,
                -0.4928139608238205,
                1.2360258698293731,
                -0.9463634424062166,
                0.8408071401186851,
                0.3302471757917091,
                -1.3433709100287239,
                -0.24581010700086567,
                1.3872400263100093,
                1.6101787858550745,
                -1.080392193414823,
                1.2427410237008318,
                1.3841694138901683,
                0.0015473582400155842,
                -0.43618447157091356,
                0.47331183204636146,
                -0.3733504801980396,
                -0.09071911114548496,
                0.22774896595912647,
                -0.23176636668415002,
                -0.5307530511645028,
                1.3271188707092125,
                -0.5059635700139891,
                2.7514595209697656,
                -1.3407106101323278,
                -0.7156880284118036,
                -0.1426940951236583,
                -0.9556744568680857,
                -0.9095957635354791,
                -0.5824698485713028,
                -0.3863941257559193,
                -0.2032726973000372,
                0.5216055400800726,
                -0.8603246227463277,
                -1.4011850933823748,
                0.3378313615559936,
                -0.7380775362719284,
                0.12241195157357022,
                -0.9882895302482725,
                -0.039726884861111894,
                1.141078116152642,
                -0.0216774869337345,
                -1.5396756774504823,
                1.0213541311427756,
                -0.21768946870518685,
                -0.6566863961209465,
                -1.0770621560002531,
                0.8481919063155685,
                0.9665901868280089,
                0.5636711077997467,
                -1.0640645432215792,
                1.157119748371685,
                0.8637144307069227,
                0.06645894626002367,
                0.35213268069681025,
                -0.7170815978467923,
                0.12374574358127255,
                3.4113691200889047,
                -2.322588201251714,
                1.3897683691859368,
                1.1561795192492694,
                0.46515186205357817,
                -2.8215654904537413,
                0.5490121088658396,
                -0.5343366993795862,
                0.7255398300407898,
                -0.19973146743882517,
                1.6547613453522652,
                1.252674271127086,
                0.6464527516116376,
                -2.048589489768883,
                -1.1515068967848932,
                1.2551787992809538,
                -0.9177314175601686,
                -0.5415839568609114,
                -0.9103068640069943,
                0.4737783032510363,
                0.2984800625097745,
                -2.850537832176813,
                1.8809504922250626,
                -0.32723247838302805,
                0.21463955164810364,
                1.35649098427803,
                1.4638056457264979,
                1.2606430761888532,
                -0.6959006089614871,
                -0.7499334142055164,
                -1.7463545305074597,
                -1.242387555174383,
                -0.15408790416585352,
                -0.10032198716767546,
                1.585608386297851,
                2.847101252301579,
                1.8242451394488097,
                1.3590484515798225,
                -1.9836948105737269,
                0.09543562516738413,
                0.14885679999888732,
                -1.4878479134586367,
                -0.3338912304456375,
                -0.7111042309456216,
                -0.4223906682378904,
                -1.1017911647556926,
                -0.9246802851168117,
                -1.103613960195871,
                -1.5101423570971846,
                -0.2215513910127702,
                -0.5560279465998459,
                0.42221666963245885,
                0.24978126652501392,
                -0.9563789014729989,
                -0.19618911978295908,
                -0.08850907908775422,
                -0.38117793787250875,
                0.5717575857365215,
                0.169194217446583,
                -0.36928783409991733,
                0.06381463964411989,
                2.3874780861150495,
                1.4260108084476293,
                2.8519468892127153,
                2.044227692208657,
                -1.1268163027595821,
                0.27327529031131065,
                -0.8228203142704563,
                -0.9362250186118873,
                0.8146625259752244,
                -1.8758094749648784,
                0.45507955666475786,
                -0.6578597880045032,
                -0.47562443183860154,
                -2.0029045138890087,
                0.7316463719841463,
                -1.3762480647949955,
                -1.3061702270921183,
                -1.5650635343926644,
                -0.3132594520753127,
                0.22389712872295586,
                0.003331874706866764,
                -1.40579603571655,
                0.8160799705142836,
                0.41791243605328565,
                -1.3411182385680052,
                0.32061875082200353,
                -0.4446070313925105,
                -0.04730822068726579,
                2.249573539680533,
                3.445558825353747,
                2.236059188158063,
                -0.6525467708306841,
                -0.9510874374903543,
                1.1282668192988246,
                0.20199324965128657,
                0.1133255712576723,
                -0.35863280030176564,
                -1.7103322086888302,
                0.445273090382606,
                0.35026593025450353,
                1.3912394383633595,
                0.3569148146903358,
                -0.1550932430374864,
                -0.646887468989727,
                0.01991353082990883,
                0.5059490760672107,
                0.0033693989062581983,
                1.1804714897471422,
                -0.6587439692297454,
                0.5161934553144472,
                0.4248499611925395,
                0.4995238136593631,
                0.18353016809189748,
                -0.5493834491115177,
                0.3307668587058123,
                1.8364112265807153,
                1.388110090669818,
                4.365413582193746,
                1.9007160911703722,
                0.933782024119714,
                -0.24284167570921406,
                0.013954623265183395,
                0.7602111448318161,
                0.22672681992180171,
                -0.7097714388589749,
                -2.37412079966217,
                -3.078034831527147,
                -1.3211940476459951,
                1.337836502130797,
                -0.2184505252743732,
                0.29394034130316404,
                -0.40432385914357116,
                -0.15301584201221144,
                0.5938919861221114,
                -1.9911140901515585,
                0.7227535011756148,
                2.2729235151643294,
                -0.40051915701965096,
                -0.15127023672560908,
                1.1487516323823617,
                -0.21128479940465747,
                -0.8211186093226233,
                0.36505752324739077,
                1.0987334802082591,
                2.470758029224846,
                1.419843772347017,
                -1.7946541591328549,
                0.07556099745921191,
                -0.602889728411329,
                -0.6785619309936719,
                -1.0549236495580336,
                -1.4699900350467534,
                0.020654107081251222,
                0.5253684202152215,
                -1.9891390614872493,
                -1.4837485295482515,
                -0.0870910525099617,
                -0.8701235348361779,
                -0.3105534324548892,
                1.918292492851281,
                0.8692733578947962,
                0.24157033550279028,
                -0.22659757818238277,
                1.6748742750340095,
                -1.0633325470179165,
                -0.07164821650181646,
                1.600342414305663,
                1.8609452783682845,
                -0.6361317582834467,
                0.2550672238881742,
                -0.0338345205075217,
                1.423836576568441,
                1.9848742374835213,
                1.46428042862762,
                0.7680400069821415,
                -0.9973689961333895,
                -0.7054762364902237,
                0.14415215617835497,
                -0.8437526764526704,
                -1.151338812055052,
                -0.06696257427324505,
                0.20859570875484296,
                -1.316545027878805,
                1.6630729194803686,
                1.2857244874396803,
                0.27135262425614876,
                -0.2572367112319586,
                0.4997605980267925,
                1.0271355544329472,
                -0.22438962876908825,
                0.054183900783486005,
                -0.5947187149878673,
                0.37313274713045025,
                0.16387325970036895,
                -0.9191387091266028,
                -1.5639765830071266,
                -1.0630754744055482,
                -1.2138492820598825,
                0.17293499325751438,
                0.7172514464966818,
                2.830694991895197,
                -0.8203357197804416,
                0.7749781984839498,
                2.0743675008442457,
                -0.7816523181097546,
                2.338636574086159,
                0.1620108149558706,
                -0.5793121532726275,
                0.2911157593960251,
                0.7619711646877562,
                -0.7292576313417528,
                -0.08862044183837611,
                0.8851670141687964,
                -0.880699738853897,
                2.095615828207506,
                0.4777212547488852,
                2.2374453770950464,
                0.17240732105955378,
                -0.55663776637817,
                -0.5531808712873235,
                -1.1164908121540598,
                -0.31080731709053505,
                -0.07102862959531486,
                0.9449381973311896,
                -0.24602489452342435,
                -2.9432422716527427,
                -1.7130728078421067,
                2.224871397390835,
                0.8038131079195772,
                2.5398096973332738,
                0.41497222504726816,
                -1.2614662644586565,
                0.5128040941866896,
                -1.4047609222122601,
                0.25339081166029387,
                -0.3680521699420808,
                -0.7483680448896883,
                0.3760128034923035,
                -0.06392382242051925,
                -0.1688225507909445,
                -0.35430028082031656,
                -0.9719419641182171,
                -0.8055427069406363,
                -1.003214661849921,
                -0.009239901957527368,
                0.4662547115503574,
                0.28517163657838096,
                -1.6326659552506642,
                -2.2114571269482246,
                -0.3485575275774982,
                -0.2388673813023489,
                0.8100378602603814,
                -1.5035770995670095,
                0.052587293216440394,
                -0.8137799366446498,
                -0.20248631018871932,
                -0.49492311747871653,
                0.5802555605059367,
                -1.0626657894534866,
                0.7161482431754963,
                -0.2250583836358489,
                0.11886878861954374,
                -0.3227790378408779,
                -0.17512873465162823,
                -0.9195702607661409,
                -0.09847876740703941,
                -2.8071315105848176,
                0.4378621861741404,
                0.6428296267641003,
                0.501457501309684,
                -0.45037518926780934,
                -1.0239295299331865,
                1.559518966573924,
                0.47285822782142617,
                -0.2782853694912368,
                -0.15352735278691376,
                1.1501683964754257,
                -1.4608898147955265,
                0.46459182702295454,
                -1.2702218923264714,
                -0.641724934731586,
                -0.7762493968300411,
                -0.9147889511177414,
                -0.09554918383583419,
                5.880817865900966e-05,
                -0.2083166320120523,
                -0.005247592598194709,
                -1.0709288806358515,
                1.5374204135463556,
                -0.8648471065469715,
                -0.9617564411574845,
                0.8648888030394255,
                -0.12714958168939142,
                -0.47623624305231355,
                -0.9934652416174139,
                1.5102614101889433,
                0.13451332278910072,
                -1.574493427199212,
                1.2253757161453975,
                -1.1817268588760188,
                -0.3554004149245494,
                0.8815939118820639,
                1.6144090632472465,
                -1.0389317867554415,
                1.7016053094722865,
                0.23246838039659,
                1.2807044756870247,
                0.29009708659861894,
                -0.08209607105852136,
                0.25566821071587564,
                -0.8388061057029781,
                -0.6357886572987682,
                -0.5780827284168941,
                -0.0073317075006952,
                2.337181935015405,
                0.31620845232851874,
                -1.1003627807305072,
                0.7919552329624998,
                0.2082582810627663,
                -0.39959615758784534,
                -0.8324505174181839,
                -0.2446255850503076,
                -0.19914194698264454,
                -0.7851466767832526,
                0.8235335432163555,
                0.9149910709320166,
                0.08224262784381002,
                1.2093601307158537,
                1.3718450628389536,
                -0.6236246041397522,
                -2.0745202004147107,
                -0.15801843748438663,
                -1.4705078838290593,
                0.42986443007661246,
                -0.438892773353971,
                -1.2760671327454123,
                -0.4874290319797505,
                -1.9816866885906672,
                0.9587566449396453,
                -1.8889511749631653,
                -0.7142213845923279,
                0.6224014711536338,
                1.0192196080966955,
                0.8846390289045146,
                0.8701317405802557,
                2.1459173255409794,
                0.6201340278405221,
                1.479076887480513,
                -1.8619207090566305,
                2.085263417440988,
                1.0988139146135056,
                0.4616083921476827,
                2.3743415088088473,
                -2.8642843185039517,
                0.9155775992138349,
                -1.5971464019611317,
                0.41765956332719545,
                0.8525065046431574,
                1.5436890799008431,
                0.5429762103056446,
                0.12617583026915416,
                0.8634740965079996,
                0.12637366421053983,
                -0.037065492721261514,
                0.22366706607457387,
                -0.48947998128972,
                0.06930779295306709,
                -0.8703653360373362,
                1.0349601901993073,
                -1.2601416004878885,
                0.3885670475942997,
                0.722405754940102,
                1.5965865801556298,
                -0.11633130106940213,
                1.022255194405739,
                0.10275814564373753,
                0.004113006718156174,
                -1.670625692332022,
                -0.69839117932473,
                0.9863512297398123,
                -1.1605085915089375,
                -2.3237194949304647,
                0.9951303857836596,
                0.025742703932437654,
                -0.5312929817018276,
                0.822955000011536,
                0.131273397083086,
                0.7258679569180796,
                1.2774623078704794,
                0.2550379527972993,
                -3.535473617536429,
                0.24055111304282925,
                0.3857317041501978,
                -2.3035019502928593,
                1.1217256420021022,
                -0.8863030703866409,
                0.5955866665948139,
                -0.722679459193062,
                0.8160667128488079,
                0.36144652080160505,
                1.549295876641309,
                1.8731730652001655,
                -0.004855234437906982,
                -0.9948337091151817,
                -0.37628140833443086,
                0.7456257356509576,
                -0.05256272152945304,
                0.3166006224199152,
                -0.03492976604866452,
                -0.03740560982976127,
                -0.2548998416722744,
                -0.18888264049982456,
                -0.6484819541747334,
                0.40686444658884224,
                0.9320003326754089,
                0.12780358967370817,
                -1.0110974142625113,
                0.8756467832559495,
                -0.699760328191214,
                -0.32152289877367385,
                -2.0999367345189914,
                -0.26522284604131796,
                -1.8375851329043689,
                0.11012137398289619,
                1.9169558476908641,
                -0.5299366966115242,
                -2.120318977985516,
                -1.2044070052566165,
                -0.29947238721979064,
                -1.3767412749239911,
                0.7815206768518974,
                1.666501688669787,
                -0.20132237633541183,
                -0.03425526975529583,
                0.9879143070159342,
                -1.966576156296144,
                0.29584223058971637,
                0.40767730775055144,
                -0.07387080988778015,
                -0.14450539687465452,
                0.532956218440613,
                1.0707160037268153,
                0.5022190074680687,
                -0.36209774517351334,
                0.7451518354380613,
                0.06548029891566721,
                -1.0141275824781355,
                -1.5283024862031898,
                -2.201954378631525,
                -0.8638306992377746,
                0.7413305127380374,
                -1.3918397531643056,
                -0.12910908849475236,
                -1.2612266032849402,
                1.1172781516666128,
                -0.9774975204884657,
                -1.1480217573145233,
                -0.28199018886093724,
                -0.22687778221016355,
                0.8774852738813012,
                1.4659555657083858,
                -0.6018486527319034,
                -0.34813964914933426,
                0.7939111848157079,
                1.2353327414113267,
                -2.086599599777056,
                -1.9933399971803751,
                -0.3588658876645804,
                -1.2593232549132052,
                0.319540216270178,
                -0.33516081747389304,
                -0.29180288444148433,
                1.0623355630920515,
                -1.0248340368796005,
                0.7245965231365373,
                -1.2400424057258146,
                -0.9508796695536069,
                -2.2630457297576867,
                -0.7236788155607499,
                -2.2936642160302028,
                -0.204338218666103,
                -2.033925911802853,
                0.10486340671479144,
                -0.3782226016365731,
                -0.9594638250862562,
                -0.02499734050865854,
                0.4750483149004859,
                0.7514705330185757,
                0.24019296081612593,
                0.014853865643809892,
                -0.8088993303940022,
                0.9282078761559471,
                0.3423756925550137,
                0.32800137490833764,
                0.21141882829770622,
                -0.3595368267252562,
                -1.6774141651168863,
                -0.12008429583060176,
                -0.12494210230293812,
                0.46910543498733326,
                -0.15916151130912493,
                1.8155331499107386,
                0.6118145652150742,
                1.0023709951941255,
                1.0062031602435397,
                -0.9273449382261687,
                -0.44550028351634424,
                -0.5407557474082074,
                0.09922908821700918,
                -0.9316221550980889,
                0.12527836115716792,
                1.0085076427767883,
                -0.4795053973300408,
                -0.9539551831220369,
                -0.9489404711277094,
                0.7091748473526075,
                0.7506545824453879,
                0.7855010438979113,
                -0.5752418226804801,
                -1.2414677579896665,
                -0.12261668113553696,
                -0.12346078026515658,
                -1.7299805771737464,
                0.39719118358381167,
                0.0005832555205129004,
                1.1400377514649864,
                -0.20773737607415407,
                0.333982877273545,
                0.6151711630228712,
                0.3871837807163771,
                0.9746539658456879,
                1.2394209530219173,
                0.43844913910453764,
                -0.46478641230314455,
                -1.8663119006131288,
                -0.34851099649054634,
                -0.6331458839457972,
                -0.44628367537318175,
                0.9950388097232287,
                1.364973616213321,
                0.8277401114476928,
                0.4733542998359764,
                -0.9752886094154914,
                -2.774380087117841,
                0.495588898797342,
                -0.6098747802897031,
                0.8759393841386939,
                -0.5589519046831157,
                2.305824173505718,
                1.770906919274509,
                0.7693895471662071,
                -0.7600437893610137,
                0.31698649311500654,
                0.26847647357543436,
                -0.27362352748274327,
                -0.5237116432286253,
                0.8105013702800412,
                -0.02936065072614702,
                0.7124188805612384,
                -0.3066201345565091,
                1.055892283477101,
                0.98665871512565,
                0.5677377016294546,
                0.17589136617009032,
                -0.2561005347289161,
                0.9468419298280701,
                0.7811415091046388,
                -2.258425044167142,
                -0.47215718603586776,
                -1.3253926518452124,
                -0.3242285385999738,
                -0.5655674995853788,
                -0.21782562562844401,
                -0.824756878403962,
                -1.463735505771429,
                -0.3908292814822685,
                0.9155023905688486,
                0.33529902767391667,
                -1.256041701856492,
                0.38021689450416046,
                0.09678033342298181,
                -2.0235978113578064,
                0.9645347895469107,
                0.684164217989957,
                -0.039623692389770385,
                -0.1182001948276138,
                0.8549761250320518,
                -0.22247329334328683,
                2.052302237075603,
                0.26630193285103027,
                1.640998616869079,
                1.426815188412246,
                -0.20676526001529558,
                1.336328668994733,
                -0.923474344683492,
                -0.8282331737609091,
                1.111598838494774,
                -0.4801725980124826,
                0.30235710414971306,
                -0.23667755547031377,
                0.5698922441490587,
                -1.1460864576704408,
                0.09566238879676718,
                -0.42395783482249133,
                0.4843227586578528,
                1.885819351359812,
                0.07385832909373835,
                -0.7297159481078938,
                -1.5957450019198842,
                1.6671350224552786,
                0.9054797355338589,
                -0.03971978643016679,
                1.833536247307732,
                2.7138156079776508,
                -0.162264815850887,
                -0.03403597591646745,
                1.387687737142134,
                0.04091382747912456,
                2.7736485905483494,
                0.5157676853461891,
                0.5529532074231452,
                0.307485973162058,
                1.8971120384666251,
                0.4437614153920104,
                0.15486394282356647,
                0.7910396121292369,
                0.5707800467488386,
                -0.17107610886294475,
                1.2569133849148044,
                0.1343336110255869,
                0.76743062965128,
                -0.9017453304149005,
                0.18404967228858063,
                -0.8133803197983539,
                -1.0860636257938008,
                -1.328136397599938,
                0.6076711759432606,
                0.3947815995918692,
                1.6269511745265939,
                0.5197665450350099,
                0.6791795710427696,
                0.5950786104448789,
                -1.2187299377275815,
                0.021014053959074158,
                -0.12381625978345963,
                -0.5001199435129103,
                -1.270568058053175,
                0.7886531895186772,
                -1.1986835141667604,
                0.859959825317086,
                1.761286971834852,
                0.3170574923761596,
                -1.3118819003891091,
                1.2373393290502541,
                0.9100926306014693,
                -0.31573610261749807,
                -1.5663772735466968,
                -0.8242948552946554,
                -1.3676800865019256,
                2.226280365724309,
                -1.650306066842135
            ],
            [
                -0.23550005192762236,
                0.35721521361400843,
                0.9651008766978748,
                1.078214353275805,
                0.6049648375733246,
                -0.15606935972058447,
                -0.5922811807942409,
                0.5161148857153405,
                -0.1549147653119231,
                -1.4866423383293703,
                0.3716902212903864,
                -0.48822097968223294,
                -0.4103668651857309,
                1.4211818287989815,
                1.024846968116364,
                0.6014215843931258,
                -0.696855463626417,
                1.5744062680110855,
                -1.7812555399084578,
                0.3702636165974435,
                1.7460188244848711,
                -0.1872148260320487,
                0.4402283980072654,
                -1.35186733222735,
                0.22626246901472016,
                -0.6823780945618118,
                -0.8295336845133126,
                -0.5118122098938077,
                -0.42621515179980535,
                0.5875827152616867,
                0.3999707693765435,
                0.5140989599056847,
                -0.19173505042143033,
                -1.5756553641851263,
                -1.3550947656298298,
                -1.2045823886975344,
                0.754607796721656,
                -1.3107634231296488,
                -0.051642357446018014,
                -1.6025578248910657,
                -0.8804740589607493,
                1.6805566855176395,
                1.477469126500097,
                2.757154796324928,
                0.7804531188370879,
                0.45237618577529826,
                -0.7859272431639149,
                -1.622279059573466,
                0.14666786263438428,
                0.33238230865987606,
                -2.2769036207261966,
                1.4026644452362091,
                1.9075120163966977,
                -0.2575280391575839,
                0.7493203287169481,
                1.4691463067171504,
                1.298353810754846,
                -0.01927093993215834,
                -1.2400680964870612,
                0.6757671863641441,
                1.4906278458829476,
                0.6004164773045674,
                1.746581791892633,
                0.10455554815701702,
                -0.5892962023082271,
                0.1507966381143271,
                -0.45295490344127487,
                -1.012958166996955,
                0.9015698216473759,
                0.30287648740923256,
                -0.2929206260240311,
                0.4358322285553384,
                1.6964996582748684,
                1.2333402211931543,
                0.735755067671072,
                -0.8630610411041273,
                -0.017832606458727876,
                0.09631278946926887,
                0.254662642784553,
                0.6449908442830408,
                -0.9450374382405076,
                -1.1491188742471223,
                0.7764139214589351,
                -0.3261825315423594,
                0.035213277991570105,
                -0.827283978083225,
                -0.4732489657539603,
                -1.6115368407984405,
                1.0556787894905768,
                -1.0375317447586525,
                0.9434413284476227,
                -0.29912693481756025,
                0.02846175766145414,
                -1.576300824517532,
                -0.5188455238192823,
                -2.0089605627572418,
                1.7475337264424484,
                0.8175295797936944,
                -0.6028474958121031,
                0.333676791351799,
                2.033044975617091,
                0.7368704768537239,
                -1.069768532320606,
                0.26190584190919125,
                -0.7717947544363359,
                -0.611712412296806,
                -0.2730978661847294,
                -1.773245469248007,
                -2.031866626243256,
                -0.35456701127140683,
                -0.3651235725861388,
                -2.7954437996527823,
                1.3394697674335028,
                -0.3465236533367621,
                -0.7670209582463796,
                -1.195280236448201,
                -1.1593613603275732,
                -0.08051503053975849,
                -0.4363240524676803,
                -1.2803900425106265,
                0.17400468879402176,
                -0.13304017554527106,
                -0.3734240976028677,
                2.2597849292921954,
                -0.12152306743100648,
                -1.6341320478018388,
                -0.19042423979131995,
                0.020043342040028285,
                1.2559812567257405,
                0.8731557859758089,
                1.800593330051045,
                -0.08099775676886635,
                -0.8289796327274473,
                -1.3196682644336466,
                2.3325722438834293,
                -0.39160052072682633,
                -0.9097691424060169,
                0.685448023127296,
                -0.1104421291058563,
                -0.40456970282711024,
                0.2616591311868476,
                0.4019044740038975,
                0.4088778038911301,
                -0.36432250002558947,
                0.5364376488277454,
                0.41391353709978485,
                -0.5456499553480839,
                -0.10209708983461901,
                -0.44698883680614515,
                2.13857714008814,
                -1.0493822058896447,
                -0.40120550493492413,
                -1.4336845133217948,
                -1.4282333965400082,
                0.8700752983258483,
                0.04229182860388871,
                0.7077895206570746,
                -0.027033919972533575,
                -0.8647319199272934,
                0.38426655931766096,
                1.496897272164102,
                -1.1629161814268696,
                -0.16097822729216943,
                0.654885859464241,
                -2.4061201935269185,
                -0.24258654506645755,
                -2.0506591948061406,
                0.600818160024154,
                -1.543539831961733,
                -1.4145702649563061,
                -0.04278117784395536,
                -1.2857148643157532,
                -0.8975932691792937,
                0.09151622394068955,
                -1.1503472275713837,
                0.3731298356727734,
                0.23975375456051656,
                -0.5330857227629412,
                -0.8676299093507517,
                0.7726272115334379,
                -1.283971679158602,
                0.43627468527144914,
                1.3077808152451826,
                0.34459711746603655,
                1.1510697074124345,
                -0.5331841336388162,
                -0.030510068614309112,
                -0.33818875718254127,
                2.0527760467513017,
                0.0003064583277618376,
                0.8616680330196317,
                0.6875154235561979,
                -2.3381076636919054,
                -0.5531954049182508,
                0.6898246239547938,
                0.006899934531511513,
                -0.10159856738682782,
                -0.015916915441337366,
                0.4039711389690182,
                0.5424935822767635,
                0.5491736973913949,
                0.5326942686601221,
                1.9710340308885872,
                -0.4213632145526131,
                -0.07248245694350146,
                -0.891269525615764,
                -0.7305590175603821,
                -1.774248021025849,
                0.06198300273098511,
                -0.11507611902158861,
                1.1822097026255236,
                -0.8261448691806801,
                0.8728372742722489,
                0.8038538502914097,
                -0.21509341555389494,
                0.38927530570851726,
                0.7726918667648471,
                0.2977251083877538,
                0.4362733844341801,
                1.18956492468584,
                -1.7366514532578614,
                0.9117276535750742,
                -0.9148298972031627,
                -1.220276048227486,
                -1.2543790562916481,
                1.2815878505223424,
                -1.1530129108246612,
                1.5755386306610852,
                -0.003282665537473851,
                -0.36667501484434667,
                0.6003463113630739,
                -0.18374534269636453,
                -0.8728358641602535,
                0.5905851757760621,
                0.0887236951482548,
                1.0855266558580692,
                0.17381859878296205,
                -0.9155905878519542,
                -0.8889692360063862,
                -0.7435033012249699,
                -2.508075266209568,
                1.9824049267017585,
                -0.31730323885154704,
                0.8854201901643671,
                -0.6816399597835732,
                -0.663575695993416,
                0.5474338586726696,
                -1.0128637332632349,
                -0.10026485651379023,
                2.134666049311805,
                1.0804520797957173,
                0.19868086655309322,
                0.20207503620794653,
                1.7000137341218178,
                0.6864762978806831,
                -0.6435205269167117,
                -0.14394195143886931,
                1.245960691864285,
                0.21819185962749296,
                0.2099444058066289,
                0.20044807805412818,
                0.8403640976522495,
                -0.07996400156084998,
                0.09189917522781609,
                0.3443527491900528,
                -0.31634131768403073,
                -0.13461340891690243,
                -0.6202728505796086,
                -0.03528086788437085,
                2.068616977853853,
                0.23454861342804761,
