{
    "biases":[
        [
            -0.4223743834372408,
            -1.4433997444080278,
            -1.7492488628892973,
            -2.971280696599341,
            0.42908189778164435,
            -1.8488573079476134,
            -0.19732960539034328,
            1.0832789698858525,
            -0.34385538707780733,
            2.0162935756706117,
            2.9030792329469994,
            -0.42742870520885373,
            0.08969405126798724,
            1.1702063012767665,
            -0.44223453243345057,
            -2.248218261686926,
            1.3309021630152873,
            -0.8027999880445329,
            1.0622563472727398,
            -1.9304580554922208,
            -0.35235816670919523,
            -1.8521821154852236,
            0.5376481826086429,
            2.323726119917797,
            0.7589435363902212,
            -0.6562826156259152,
            -1.1346837588359187,
            -2.399512660337708,
            -0.9287617124574621,
            -0.6893389893597197,
            1.5963818925956659,
            -0.3777761107660389,
            -2.460656684302214,
            -0.02854731423205461,
            1.5233396682626859,
            0.878059834490702,
            -0.9191853937117905,
            0.47401744384130473,
            0.36572222212102995,
            -0.4726706685525204,
            -1.1642069711997236,
            -1.1509403320312794,
            -1.711579580657814,
            0.4864431353981415,
            0.5076903788391631,
            0.10689059728059158,
            0.9853588672318603,
            -0.26574987893202756,
            1.0155343285955851,
            0.39272015622244477,
            -1.4832587677865872,
            0.5604824467774694,
            -0.1877381372589746,
            2.449948335420057,
            -0.6002377998895105,
            -2.0943392895585173,
            0.44330461034164254,
            1.3165573032560163,
            1.2111166596684129,
            1.3367775159586173,
            1.1477870175764127,
            1.9774321350589334,
            -1.1520349346189716,
            0.794643882603031,
            -0.9983533246109927,
            -0.19593948891119828,
            0.7245234735253825,
            -2.166831757736617,
            -0.7652372789829157,
            0.09134129620639429,
            -1.8732595823284142,
            -2.0130649087634644,
            2.0470951783742426,
            2.0430837531171444,
            1.8398927360477486,
            -0.3749491728717623,
            -1.96415717990745,
            1.2134116672640511,
            -0.5066833734781664,
            1.8220753655114312,
            0.3407077753487017,
            -2.463670135374749,
            1.3503258262872966,
            0.9548379077813737,
            1.8712323447063104,
            0.09858546647249111,
            -1.7776634813433774,
            0.3740839677493054,
            -2.2800054839684583,
            1.0881714861577259,
            -2.8030681894768765,
            -1.1815716878839786,
            4.132223970346488,
            0.709459758810799,
            -3.079970125758336,
            -1.2056273859963447,
            -1.6007661005205496,
            1.2649709306143313,
            -1.1382364397550482,
            -2.3501602150619916
        ],
        [
            -2.863354584104915,
            -1.5215144464345576,
            -1.3020322990166189,
            -2.5186810796950843,
            -1.54869178658612,
            -0.9665969633540352,
            -2.3225830615487224,
            -1.4858387346756992,
            0.10338392863560512,
            -2.6912479385583734
        ]
    ],
    "num_layers":3,
    "sizes":[
        784,
        100,
        10
    ],
    "weights":[
        [
            [
                1.0734575508064228,
                -0.43706112090666976,
                0.08359670761579786,
                -0.1663268470848845,
                -0.02656907482891743,
                1.1758571081591374,
                0.0573924092958871,
                1.0571842608347042,
                0.8754662374766495,
                -0.8595078925262737,
                -0.7012249568325442,
                1.0660243826953668,
                -0.6757626910183363,
                -1.0826355870405715,
                -0.9554258920842337,
                -0.5598017852522981,
                0.41415149567092185,
                -0.18696344653039282,
                -0.015947805939902936,
                0.7030614555940046,
                0.7309302178162945,
                1.53550625210503,
                -0.888297382789598,
                0.2865324899789892,
                1.0553957583549753,
                0.5916721583768181,
                0.5249676380354271,
                -1.3151992584476815,
                -1.359065296647162,
                0.2714125758470801,
                -0.7129444551771271,
                0.286117528579587,
                -0.5099218998875754,
                -1.2468798350259576,
                0.49753669635448655,
                -0.38000657519419034,
                1.1618275961173194,
                -1.3872224060340532,
                -1.0320391652563963,
                -0.3265231817352697,
                1.8502210314968455,
                -0.2573693690974789,
                -0.8431026221966257,
                -0.7051172213630947,
                -0.03167692742266884,
                -0.07602309901457668,
                0.6522204504818153,
                -0.8722976087385055,
                0.8046488254656213,
                0.28749049289233386,
                1.2582157503478755,
                -0.03227391389549251,
                0.1741285299773383,
                2.30945255399445,
                0.6716086688988051,
                -0.6060288831433163,
                -1.9800484340371607,
                0.8502136275889791,
                0.13169095271043307,
                -0.3092889831781242,
                -0.20583940894425112,
                -0.010462801496145533,
                -0.9303788644593101,
                0.986829641436921,
                -3.045410112260459,
                -0.4836428967193431,
                0.8059195597030351,
                1.1710931354274148,
                -0.08003481478682717,
                0.6619821081917623,
                -0.7968572272802514,
                0.9138791558189873,
                0.779469463818385,
                -0.6517085170333878,
                0.6166673182752159,
                0.2956498300309289,
                0.08329578840412129,
                -2.209686454150005,
                -1.4517643470738637,
                0.9212530731820888,
                -0.28850998784910536,
                0.45179260885324973,
                1.1358776354506035,
                0.3886495144118752,
                0.864750538706218,
                -0.21857895663806118,
                0.3846456567797544,
                -0.0691117359187808,
                -0.7230410283483287,
                -0.7599704802249017,
                -0.5161764381799275,
                -0.1344560909517747,
                -0.3510197803023365,
                1.7100348581923794,
                0.7125782068801544,
                0.03505682549713474,
                -0.3443150885725878,
                -0.5601251486242979,
                -1.0694434132823358,
                -1.2027845367931616,
                -0.4047613899961965,
                0.6170066648631185,
                1.6087015097632031,
                -0.3877547210768231,
                -0.6146614848468324,
                -0.6028357690826844,
                0.11616492200964318,
                0.2861958455170368,
                -0.33661279495855084,
                -0.7649309730405595,
                -0.021278645925010393,
                -0.8185336138189231,
                0.7696365553960041,
                -0.8597354458791547,
                -0.8998170944613306,
                -0.7030761982341086,
                1.8172310251610926,
                1.7446898252299212,
                1.6058412424075168,
                -1.7539053319562325,
                -1.991746457609317,
                -0.33998762140705185,
                -0.8622009858025306,
                -0.43667441129823126,
                -0.23774607380851015,
                -1.4385226633609682,
                -0.7074167668106112,
                -0.18856607002204462,
                0.8606989333793771,
                -0.1696855878302144,
                0.8357190802724811,
                1.9714256644157122,
                0.3853608167505849,
                0.4756638063666135,
                0.9091302042093531,
                0.2482100154869155,
                -0.10193074782440242,
                1.0688551602702259,
                -0.9703572068387787,
                -0.3673669622774705,
                -0.5873114423688717,
                -0.906333808874027,
                1.2607734822980485,
                1.213858451860686,
                -0.04047629744309872,
                -0.03934139845385936,
                0.6905887601434434,
                0.051641487102067764,
                -1.5647182566019546,
                -0.9366343216376196,
                -0.8942236937653146,
                -1.1405262360933681,
                2.2025080185087806,
                2.0908411695765152,
                -0.1823496453461706,
                0.37043663807267846,
                0.17108271693451627,
                0.05718870196148422,
                2.423686353919581,
                2.12990102153583,
                -1.2409609960660308,
                -0.546558548378579,
                1.0847838912654157,
                -0.23876071933180626,
                1.3872063042494176,
                -0.685049041819705,
                0.4994898543473233,
                0.8202748418886757,
                0.13694531845352245,
                -0.49891679092351343,
                -1.2834345042008788,
                0.502136241056571,
                -0.034034818508394155,
                0.15283566988694033,
                -1.3910390599385638,
                -0.7555321726048816,
                0.6210861805264181,
                0.3560404872207751,
                -0.09072027792704426,
                -0.6806239711587447,
                -0.16634986417781605,
                1.2758057794447726,
                1.2720650999905996,
                0.7078836049471012,
                -0.20593202015670903,
                1.6549420269140966,
                0.15944769508219442,
                -0.03161278126881,
                0.5207314203186966,
                0.5102113736021696,
                0.31328631786346595,
                0.7190262735966055,
                -0.09611222841955656,
                0.7459004239974464,
                0.4802256849649979,
                0.3651448903117427,
                -0.45669812145246563,
                -0.23449937993285916,
                -1.1033492993903389,
                -0.20989384742903366,
                0.162888046726916,
                1.24466557263852,
                -0.3572605522069803,
                0.407317563927486,
                0.023463057914866182,
                0.5664962681696777,
                -0.9234249714433047,
                -0.2786937550755834,
                1.1517585530168513,
                -1.165534375614586,
                1.0055345776436313,
                -1.542461950813688,
                -1.0028896792418474,
                -0.43299731965349375,
                -0.4115990665139924,
                0.3268669310275273,
                -0.8284682147316634,
                0.5463104228077452,
                1.3049716612121727,
                -1.225612232756283,
                0.93262119773946,
                1.0020863342138713,
                -1.466879443878855,
                0.5118542121086656,
                -0.5767441561254767,
                -1.01889638749214,
                -0.21078896587169105,
                -0.5175400351696109,
                -0.969119392605215,
                0.41765764980983494,
                -0.40829478039250217,
                0.5852076986577165,
                0.6239040199758026,
                0.06406132575559638,
                0.6072326445381442,
                1.6931685718554994,
                -0.1325736743706743,
                -0.6356926671380966,
                0.9212152580930875,
                1.375388867581828,
                -0.12692871541549713,
                -0.6849118836180406,
                -1.1679785841351193,
                -0.665002904918682,
                -2.1937805162215978,
                -1.1059067089952852,
                -0.45644740761975394,
                0.7717158186282554,
                0.8793740076457772,
                -1.7118234611652707,
                1.3455664605727757,
                -0.18837847798771432,
                0.04362273927185536,
                0.29786261062987457,
                1.8508946714411294,
                0.8698448867251841,
                0.36896127310802085,
                -0.1362329674194286,
                0.6048460955698298,
                0.46017290164750074,
                0.07522203311148037,
                -0.8906022563665991,
                1.691077792296229,
                -0.4112331260683271,
                1.4366120536714626,
                0.12806098411043637,
                -1.1853088032933397,
                -0.5460937846598144,
                0.6048135548296028,
                -0.41369577295018284,
                -0.5687425045633804,
                0.9008433506955414,
                -0.13133844544683904,
                -0.46511945997859666,
                -0.9846274230949247,
                0.22612859700946833,
                -1.2258528806892712,
                -0.8284053102897891,
                0.06516936049268866,
                -1.223612016219867,
                -0.2801747636547525,
                -1.6149354387390522,
                0.28372197550602396,
                1.0875793426110976,
                0.30578167480436597,
                -0.03689267519746321,
                2.545235370572365,
                0.10198443449395932,
                0.25288442198694006,
                -2.109337233896131,
                1.1636919140460034,
                -0.10515264751934471,
                0.6583393177526845,
                -1.0862983359279497,
                -1.1806415670895034,
                -1.7097517671689362,
                -1.195972781164439,
                1.1203125774059663,
                -0.5099532606010388,
                -0.47952278686766553,
                0.4244359636907072,
                2.0310447220876644,
                2.8972682819361966,
                -0.11459323778408527,
                -0.41284077512100537,
                -0.1474643944189095,
                -0.965169518910355,
                -1.4291975521176752,
                1.7169701942043152,
                -1.644745455811658,
                -0.4619723413482904,
                0.013101064125678841,
                1.4037474153764113,
                -0.3467611026206418,
                0.05004295671052389,
                0.34431900297217544,
                -1.003595822900376,
                1.5438094842882117,
                1.3404000413024701,
                1.0260154868646767,
                0.08584318508662846,
                -1.006063116580592,
                1.0315810756909591,
                1.157066247703847,
                0.37151771316364296,
                1.9622817119834717,
                0.1942779258141928,
                -2.4950289355002373,
                1.8601972460687757,
                -0.02275124265610354,
                -0.9785600483722208,
                -0.9519021656279627,
                -1.612078906526403,
                -0.05161610192504032,
                -0.9096361774997541,
                0.7706501562117175,
                1.0103144498626007,
                -0.27212933385262095,
                0.8910856522205972,
                0.10226243469486658,
                2.4869084996273987,
                -0.4723625821928046,
                1.5354711837088857,
                1.5670277293713168,
                1.03532751000909,
                0.2361704888144797,
                1.7464398971059993,
                -1.848542288066151,
                0.3099740276152131,
                0.35421500358857033,
                0.9187497185822887,
                -0.25838675236253605,
                -0.2478865654985969,
                0.42892343694083146,
                1.539129814000707,
                1.1942616312920424,
                0.837781334958155,
                -0.7020640409233947,
                0.567653918030426,
                -0.7075390007258935,
                -0.4162498087227232,
                -0.5008934294261079,
                0.18953922330441256,
                0.1491502753276794,
                -1.0304671492199033,
                -2.0609277871828664,
                0.36211530410639736,
                -1.5352108379975213,
                0.07640077641262488,
                -0.310359640027092,
                0.529243932366597,
                0.5544662650920242,
                0.024341367518974238,
                1.7107967854862471,
                -1.2427987705927637,
                -0.7151265288248805,
                0.2848822032980752,
                -0.7982850412264278,
                -1.6865264915160814,
                -3.1700405458633427,
                0.31565915733019,
                0.8376919588774664,
                -0.7158703755420439,
                -0.17732423286834847,
                0.7665970211656077,
                1.2195642263110444,
                -1.218668913142733,
                -1.0031234025306053,
                -0.15540473108488642,
                0.19077385805123268,
                -0.5231310417852691,
                0.09752500709598706,
                1.0292401813486667,
                1.0891567132247646,
                0.4549482908116979,
                0.1531070930332587,
                -0.8946034760310301,
                1.263862332090872,
                1.470777033068936,
                1.2028677542151969,
                0.6487049975842616,
                -0.6170599615475896,
                -0.6504581399584061,
                -1.5603598552947429,
                0.03631236351847401,
                0.5257785565145945,
                -0.7191747463967649,
                -0.5425154309491568,
                -0.050639358993739114,
                0.688504475967357,
                0.09883002544417299,
                0.7839982556019144,
                1.8579326434376107,
                0.6112856178749894,
                0.7359229668403171,
                -2.001925646625609,
                1.0672721800075518,
                -0.7357737266051054,
                0.4683565600618929,
                -0.027227737582101334,
                1.049518423087808,
                -1.0170329869868175,
                -0.24961394761373526,
                0.25476707404801574,
                -0.14152605586728403,
                0.7551611651168398,
                -1.66465773371746,
                1.9674975933008387,
                -0.16523911851499978,
                -0.7081418808091974,
                -1.126130133037464,
                0.48262433647645525,
                1.1557510053980753,
                0.296597647639859,
                -1.3117422275117812,
                -0.9161755890517578,
                0.9554916350153746,
                0.4195043342251721,
                -0.42020245261082007,
                0.6083006492332452,
                0.8323226300152509,
                -0.6934673233435014,
                -2.1697118593882725,
                -1.8703879306405427,
                0.5599670495289084,
                -0.2802803263537544,
                0.61893595333573,
                0.19622295434161224,
                -1.4784030236529653,
                -2.836177365877356,
                -0.6743711676317921,
                -1.2299021635177299,
                1.0633684066134876,
                -0.7955913668165717,
                -1.9309192694152344,
                0.3839582208722772,
                -0.6760002188071746,
                -0.808292318147809,
                -2.0837727664711476,
                0.30579343069535814,
                2.38615190480063,
                -1.6123163962496159,
                -2.11369970492178,
                0.6089939270489764,
                -0.1100956795233136,
                0.4136678793577511,
                0.572813172522666,
                1.763181705110701,
                0.5285357854752655,
                0.07934070630433812,
                -0.8255380163878412,
                1.5267023866361777,
                -1.1067543646305773,
                0.6247377779711053,
                -0.198736713159046,
                -0.4253285664655547,
                0.4013930983501633,
                -1.8159427333304046,
                1.4313014577480947,
                -1.6163617348458352,
                -2.4191674586997043,
                1.3591128887114197,
                -0.6355836241689986,
                -1.66737790761039,
                -0.9768507751699809,
                -0.1522803948755234,
                1.755642870026423,
                -1.3642953567347254,
                -0.7714357749377285,
                -0.8118467897699322,
                -1.2750865143094725,
                1.2462865083224457,
                2.1153000368808192,
                1.243607948033887,
                -0.011147586473457637,
                -0.056087084021468794,
                0.39140391441965255,
                -0.4169822265636792,
                -0.6978473429944109,
                1.1405910739125555,
                -0.12005084983876296,
                -0.06317736051347263,
                -0.5612586950621195,
                -0.6446199475015081,
                0.5457220155896004,
                -0.3042082392460992,
                0.5297212471533697,
                0.7854311144496472,
                -0.5785435376330389,
                -0.6045027467834508,
                -0.31985334432739587,
                0.5836572343524059,
                0.35507933138940656,
                0.6728155326504095,
                1.4022741125288307,
                -0.6150371160202128,
                -0.7798622329794948,
                -0.8193562896515867,
                -0.0036070471936096586,
                3.0875017044112862,
                1.3640382349203315,
                0.9154823117017885,
                1.5070333578692745,
                0.23446335012824668,
                -0.32431118594667974,
                -0.41277009673583354,
                1.908392112117502,
                -0.6598077646896572,
                -0.4845037446091403,
                0.08787546400036919,
                -0.3662559664715759,
                -0.7052645133683173,
                0.6221123231408769,
                0.5525942570035532,
                -0.22846185442227585,
                -0.22472846198245394,
                -0.4025857564649762,
                0.453314374499619,
                0.06489309158195282,
                0.9034521179845764,
                -0.1694765004736999,
                1.4805972158045078,
                0.34084550931577007,
                0.27822991717988327,
                -0.16664413720194066,
                -0.7855435083907502,
                1.2093366905922793,
                1.166173200478241,
                -0.5500483387040191,
                -0.3658127849809501,
                -0.1656706064005729,
                1.989403198428536,
                -0.2633646077025467,
                0.5638068030385228,
                0.7823592324549917,
                1.700054114586468,
                -1.244404754127292,
                -0.7125271340211363,
                -0.9029045014522529,
                0.8047695211634239,
                1.971315001793742,
                1.30873536071799,
                0.873656120760687,
                0.38692575526025863,
                1.1373058021845255,
                0.6580482146272011,
                2.0617466536793425,
                -1.0166738637160124,
                0.3347936505038306,
                2.9165256246954865,
                -1.2936844410873476,
                -1.1178564991947828,
                0.45575266994007485,
                -0.07891424143113202,
                0.47040802669880954,
                0.12846291816252922,
                -0.35440009717921145,
                1.2562927368732089,
                0.9188176474565846,
                1.554632535428854,
                -0.7088009158789923,
                0.5837345043548946,
                1.379312626583351,
                0.1075203486856202,
                0.5042153074279712,
                0.7813063447314182,
                -0.5890107462004393,
                1.625411428998547,
                -0.963873108085582,
                -2.183216987435543,
                1.6370743774776189,
                1.0217865675769349,
                -0.7167384108204499,
                -0.198060030830712,
                -0.21908570873360597,
                0.3565509705794937,
                -0.9053288581384604,
                -1.0147510943753,
                0.058955303085034175,
                0.2301376341595334,
                -1.9697648604478022,
                0.488442181224955,
                -0.5764570920982031,
                0.38270508380689394,
                -0.03319209463387212,
                0.6525420994905834,
                0.37972656172389346,
                1.3033943658394878,
                0.11245662838345,
                -0.0246986990301051,
                0.543204002203492,
                -0.21740005623584843,
                -0.28896525721892646,
                0.019212164837515686,
                -2.250058805786144,
                0.4091893944685699,
                -1.4014982842935977,
                -0.40954716041589134,
                1.1056009472777444,
                -0.22808325739231672,
                -1.7923681983720234,
                1.479398676102071,
                1.7557678441453897,
                1.2732541738744072,
                -0.2352703812457049,
                0.33404777603796243,
                0.3470022259192547,
                -0.3634885465320282,
                0.4551559628205595,
                0.9429627509723929,
                1.0603372397116753,
                0.6244111758538525,
                -0.20053790980826153,
                0.10072911793749953,
                1.05010969579176,
                -0.07277956148267363,
                3.0469608866702957,
                -0.8496156325674735,
                0.5033909074334592,
                0.7599666557783893,
                0.024915047658632304,
                0.02239298376056049,
                -0.775371096098817,
                -0.28758133343048203,
                0.8437455868047484,
                -1.6848530545764846,
                0.12066397644485603,
                0.8135334068312822,
                -0.39483555225244826,
                -0.28615287813771917,
                -1.2185098899663624,
                1.241603189510806,
                1.78514903859268,
                0.6459418690405343,
                -0.8902250104649632,
                0.13928179485188552,
                -0.3567133959735392,
                0.04691958191703754,
                0.26986578352661245,
                0.19771691882288817,
                0.10094043752392083,
                0.8503911937465897,
                0.23618259624862548,
                -1.8964374620541913,
                -2.062403522666497,
                -0.8106815050129013,
                -0.0612826911862682,
                -0.4576973411442112,
                -1.0811960442665145,
                0.7430998318159007,
                -2.614154007577049,
                -0.32144088427476497,
                -0.9623094529586123,
                0.0033559084705978657,
                0.1844041830994195,
                -0.46647405931693825,
                -0.8048704471998362,
                0.4407947368802043,
                -0.19885476828519108,
                -0.18887066017282017,
                0.60091162396664,
                0.9219331630691179,
                0.33200231209328834,
                0.8347347164686356,
                2.672630091100319,
                -0.748958946550862,
                0.7862802068989689,
                1.207071289852781,
                0.32432178565758196,
                0.5219570167021799,
                0.14134248610205397,
                0.6630178685352006,
                0.7476940368487012,
                2.0117576689852146,
                1.9394431561106864,
                -0.24662348231629558,
                -0.39467611161573957,
                0.04968837877627212,
                -0.8715212151761166,
                -2.0781873150728973,
                1.6588763892165463,
                0.96139118580674,
                -1.028654621622367,
                0.02925592169818085,
                -0.08349430721557573,
                -0.19142183976781374,
                -0.8334302489491359,
                -1.7086246021270093,
                0.19783039144578435,
                0.9327874528873542,
                0.2126346498297481,
                -0.36064839744797844,
                -0.4857894125159783,
                -0.6401032632940707,
                0.4308952652276931,
                0.2331552533713277,
                -2.020144082340542,
                -0.10987497631521462,
                -0.4335125510983656,
                -0.9056658292171945,
                0.4643035237224918,
                1.3484243624478325,
                0.722370857128455,
                -0.3729081850056398,
                -0.5991494262588488,
                -1.568613638328665,
                -0.8964022601573343,
                -0.35033472953197775,
                -0.196594645884881,
                0.03581334806191494,
                0.926182125868845,
                0.21450432860701096,
                0.7940204592706689,
                0.1877693249028442,
                -1.2433109871981762,
                0.4426648170659265,
                0.5314888899645339,
                0.4387176171372419,
                0.4523094406886428,
                0.5498560618198894,
                -1.3492785828835785,
                0.9897534201577848,
                -0.8508774490574385,
                0.25500377498820254,
                0.04400429594725116,
                -0.24026472170061228,
                -0.11179468288719205,
                1.0369247729859876,
                -0.19346871259064927,
                0.07086601782530365,
                -0.2870429895865526,
                1.3544677882654172,
                1.30090567524697,
                0.4459328363064116,
                -0.814539026118888,
                -1.266439641342444,
                0.4838355731443111,
                0.8350430984292899,
                -0.838971137913427,
                0.464385591918573,
                0.2898027968014984,
                -1.261616821270734,
                1.8501749609939608,
                -1.2888808857178098,
                1.035797774457364,
                2.401996457408718,
                -0.13227839178067086,
                -0.6550749154309294,
                -1.1953901199952488,
                -1.4663166169817083,
                0.6999921118660811,
                -0.6039666214937996,
                -0.6749618933659178,
                0.26497103395098265,
                -0.5529078634473331,
                0.754642065443631,
                -0.1272864659382561,
                -0.688025731178339,
                -0.4396477948312136,
                0.32252641653853364,
                -0.2500229549900512,
                -0.18266760161888243,
                0.7924149092825992,
                0.02885881776809822
            ],
            [
                0.9406094767153951,
                -0.651363365002881,
                -0.5397029875964386,
                0.42225150306093456,
                -0.8554531648857692,
                0.14459801666352734,
                0.29451198517112415,
                1.2054093501866394,
                -1.3651790888956474,
                -1.2655247665284055,
                1.2341269974923554,
                -0.19519468493807104,
                1.766514736790643,
                2.0992835200042768,
                -1.487464105687503,
                -0.49395397996164137,
                -1.4869072907147431,
                0.3969849286383137,
                0.08068256646860605,
                0.9876494135783165,
                1.0168232261646288,
                0.967690933550311,
                -0.36083244329343117,
                1.1725331715926073,
                0.48824859200145093,
                0.335628211886039,
                0.6595061136551579,
                0.2351545687898953,
                0.23765881828950247,
                0.8583313193773026,
                1.3853874351053377,
                2.589969137753993,
                0.13852775504417017,
                0.32214504934648536,
                0.5486732536663125,
                -0.8287535420131267,
                0.030269801923685665,
                0.96077899413504,
                0.32317044844641774,
                2.325688856680196,
                0.07299294432391253,
                0.02810218549428614,
                0.5241553568588756,
                -0.9384328521882598,
                -0.2998244631270221,
                -1.409063728806479,
                0.8996708139480557,
                0.293183887835925,
                0.6667530533068585,
                -0.7304841195634836,
                -1.925945804263189,
                -0.662694492166942,
                -1.4975599824587766,
                1.6736362721894027,
                0.7374961947165082,
                -0.4505369440122751,
                0.36415769560361533,
                0.32174569183127916,
                -0.1819427613105798,
                -0.1420349924679027,
                -0.7321553830092579,
                0.7600512961189089,
                -0.16183247333502151,
                -0.08845285336621252,
                -1.2228244850994858,
                -0.3299357158357669,
                1.5982893002951002,
                -0.7173756161762137,
                1.4626093072233115,
                0.12418647120738188,
                -0.7616491747853319,
                1.0099329250271223,
                0.8061923835371405,
                1.5827433015294048,
                1.4612655493908555,
                -1.307899424187449,
                -0.8043566864609479,
                -1.6233999352188986,
                -0.24600212121473514,
                0.059464140768196505,
                0.31740476565659137,
                0.195059396036192,
                0.023374858779573324,
                -0.6631630254280094,
                0.2523530164928996,
                0.589685835160167,
                0.0043450084432023,
                -0.7247884551249367,
                0.9423876181792213,
                0.586481274202277,
                0.9167875902375129,
                0.03631506716497119,
                0.05589879126784862,
                -1.1312658489110405,
                0.7579209936823612,
                -1.4245349709636481,
                1.0639314980451118,
                0.9166318472001731,
                0.2644132706848348,
                0.3504834648656233,
                0.18551338654462857,
                -0.26443878126080744,
                -1.0193249671683253,
                -0.1414988003548776,
                0.5155034520296206,
                1.893079851844197,
                -0.14393351982667232,
                0.1440519726651692,
                0.6831825611451131,
                -0.7995043271931817,
                -1.3698710349908036,
                0.14846996331809753,
                0.3963267618928833,
                -1.2710767898087574,
                -0.3640309004834253,
                0.4060835008584555,
                0.1521455966396046,
                0.4755150628040265,
                -0.011763793601170178,
                -0.276502582092274,
                1.749720193266787,
                -0.1152140701937867,
                1.1288913994938738,
                0.7402668501873597,
                -0.03789300615231469,
                -0.24919058401540725,
                0.6036192057432114,
                2.3777714634960527,
                -0.026599341684028326,
                -0.9412563555827017,
                -0.506465583421876,
                0.009677868283120242,
                -1.6635349880313486,
                -0.4816622911359901,
                -0.7264157184391642,
                1.6690197714821606,
                3.005669440314921,
                0.8983135233579773,
                -0.6123089284475606,
                1.1622530773161197,
                0.9823007452160188,
                0.4588064177706013,
                -1.0510638858108123,
                0.19249414911677082,
                1.901379607114939,
                -0.13287325495177535,
                -0.08976957472119658,
                -0.44087275320907277,
                -1.1561980887749017,
                0.32670895018156443,
                0.7112220405385514,
                -2.4268600656829475,
                0.019305746168212963,
                -0.7930354395569451,
                0.0891893441309557,
                1.5342205340133308,
                1.62418278650586,
                0.8076013554852118,
                1.6534454338263522,
                0.0024883581861452012,
                1.640004807092037,
                -1.284762521529399,
                1.088231861570698,
                0.6155227822851917,
                -0.6372373682408041,
                -0.15238165516600063,
                -0.38982484071735946,
                1.1489174420184824,
                -1.322599727663588,
                1.7143648012190669,
                -0.6428379409153522,
                -0.3537728599225736,
                0.5307939151555294,
                0.03101426635614511,
                0.7473364785743517,
                0.724053218681532,
                0.5218815001505115,
                -0.22156918734978895,
                -0.1354267260885805,
                -0.9990734484211522,
                -0.2772894549270099,
                0.806481095689029,
                -2.9430306799245134,
                -0.5069774943160634,
                -0.9873931919958245,
                -0.6230420469969723,
                -0.5643220690220335,
                -2.4396955134531035,
                -0.9477411094622425,
                0.6995386515675924,
                1.1255183678392204,
                1.5337148555551836,
                1.934841887878352,
                -1.9533422739486734,
                -0.522162481561403,
                0.02060633646405228,
                1.4775708887039838,
                -0.7967202401320167,
                -1.0703613570426722,
                -0.1837966369335591,
                1.1703564946935316,
                -0.5390526296737584,
                -0.43811794956240957,
                -0.7373615618039959,
                0.14945589343682614,
                1.15260492875353,
                0.4413596363002433,
                0.3996185129680474,
                0.05116754873068318,
                -1.0252129453641088,
                -1.0803744390732,
                -1.3423272997340172,
                -0.6413400870179365,
                0.25479983424911967,
                -1.2394333142116558,
                1.0302025410944295,
                -1.6229389377028718,
                0.3555531249849687,
                -0.777617324892039,
                -0.03587912621191013,
                2.4833957627801024,
                -0.48796050980773703,
                1.09547207522455,
                1.932927857064041,
                -0.43408008159682226,
                -0.3594739573112715,
                1.5362980609952444,
                -0.4341697072033365,
                -0.21493071971783853,
                0.0375567988573841,
                0.9053359012435458,
                0.3302508934496927,
                0.03525525326722777,
                -2.681233729830307,
                -0.7797209355335972,
                1.180438778915484,
                -2.097623881422387,
                -0.32013957582365776,
                -1.3949412287300327,
                -1.718457008281217,
                -1.49472059150179,
                -0.485798635348882,
                -1.3244144034083336,
                0.9165286525536757,
                1.2850935821963727,
                0.17117571440466797,
                -1.0046098789833064,
                0.23081958404977942,
                1.1893707978638839,
                0.4789320011429084,
                1.5336952022857375,
                0.5973415764026547,
                -1.6662783982671419,
                1.997185107735699,
                2.146701979065352,
                -1.6509145332747188,
                0.07132372702340962,
                0.7233384317188208,
                -0.8675048590983834,
                0.0737356968964662,
                -1.1444173815367786,
                0.11171723458662132,
                -1.2909006908638279,
                -0.6976747657633312,
                1.0897137121130622,
                -2.099022225282056,
                -1.8525069370618932,
                -1.045591170619122,
                1.1938592359476368,
                0.3592672663372464,
                1.2872012027779014,
                -0.8804168629895561,
                -1.7587969669291794,
                1.0503747166285962,
                -1.046495381368459,
                -1.0786228884941709,
                1.0244056403842001,
                -0.3589114784482875,
                -0.032331578275570746,
                -0.9073017456948014,
                0.07793176400216122,
                -0.6020332609659661,
                0.16679811661210528,
                -1.983669993950306,
                -0.488058495579894,
                -0.8831230029021562,
                -0.33994009676154635,
                -1.3449756251604428,
                0.7027176474391719,
                -1.3495443904682571,
                -0.16683902274297568,
                -0.20991436242420036,
                -0.6172996776905169,
                -3.039399662768431,
                -1.176148307483224,
                0.47624597840525884,
                -1.4808284803280527,
                0.3777924358010442,
                -0.9961874564951902,
                0.26768219108166424,
                -1.0638868448857308,
                0.6787789820128731,
                -1.5147101026221692,
                -2.1999308182426356,
                -0.9200866669229147,
                0.9788134508479128,
                -0.6094459692509305,
                -2.028119321368822,
                -0.42910064111574264,
                2.1798527722546837,
                1.0488694753108478,
                0.19053841966325658,
                0.5498065706487689,
                -0.24696272613083428,
                1.1465112555806967,
                -1.0745482526030492,
                0.6455599697464236,
                0.058148402648219744,
                1.2018109210771746,
                -0.3416702491684282,
                2.2749070801571447,
                -1.3785609132687187,
                -2.5924129859570755,
                0.4635122539115774,
                1.0831150046783695,
                0.8117364349192762,
                -0.6445940834580562,
                0.016674075486180485,
                -0.692021842347979,
                1.6469737431047717,
                -0.20758729516006083,
                -1.0894287738790311,
                -1.2585412407549696,
                -0.25048855560025296,
                -0.41449385717710935,
                -1.38394021357681,
                -0.8494299122648052,
                -0.4842857494737595,
                -0.2661574326005446,
                -0.9982636799111075,
                0.408138863597118,
                -1.1834464139142895,
                -0.4337658870620934,
                0.29710375840558095,
                0.3168402200654629,
                -0.1593348544474137,
                0.8547966507012047,
                0.5601757613631446,
                0.6698280903096931,
                -1.4807659004249207,
                -2.366038429327178,
                -0.3010397852783977,
                0.46423336580167035,
                -1.364765806359549,
                -2.0837840545145068,
                -2.467333532943679,
                0.05638456830869163,
                0.7300989245645373,
                -0.9444675548057229,
                -2.1023483480374305,
                0.8012895643482052,
                1.885297140145619,
                0.5863694364116355,
                -0.7781499213141431,
                0.05427253915294378,
                -0.3578148051755859,
                0.33222727490256837,
                -0.08701293889771515,
                0.1874603121583749,
                -1.1339880531524638,
                0.3994693852307989,
                0.9111261835675621,
                0.15971409098763947,
                1.0942327945503685,
                1.0972732989221148,
                1.7350944523519882,
                0.5892857910211475,
                -2.1086075114726506,
                -1.1434778322225272,
                -0.208582410823198,
                -0.840704755761262,
                1.0339762772587655,
                0.16738664277547316,
                0.5569181068669197,
                0.8634325924706111,
                1.0555344310829873,
                1.356627313176429,
                0.5134471740118101,
                -0.8289121722572093,
                0.17965760862845737,
                -0.1801269490219675,
                -1.4572385064330442,
                -0.7041789531861887,
                -0.4479282490629917,
                -0.324449210407759,
                -0.3263616026424146,
                -1.0318857277767262,
                0.32598664975648545,
                1.3517438602571785,
                0.9136702097177973,
                1.945215780898629,
                0.5479592895365344,
                0.967623405956445,
                1.5289391132859513,
                1.3465095904868842,
                -1.3930330225498129,
                0.08863671299160832,
                0.15175317340862202,
                0.6325950034794336,
                0.23740602944487177,
                1.5777879414762013,
                0.10380972872628681,
                -0.133711224751454,
                -0.11034851853672523,
                -0.2096862718140617,
                0.29974984580460234,
                -0.5485204373258764,
                0.5974745937262678,
                0.4240972355183611,
                1.7533525225557665,
                0.03129994041445113,
                -1.9321736135090541,
                -0.6933710257302099,
                0.0668834618903978,
                -0.617191170397901,
                -0.5354333763384491,
                -0.022463087999945893,
                0.10430397180853877,
                0.6915127539299709,
                2.785430720867276,
                0.6871822600000149,
                -0.5237069126242828,
                0.7788728816341055,
                -0.18295046352964542,
                1.6686990206001269,
                -0.6549254465927686,
                -0.0825156648381379,
                -0.8049166545462216,
                -0.23744102080570106,
                1.1678092542452765,
                1.1881535277871031,
                0.6198204874557807,
                0.5716501239652222,
                0.27840161534292596,
                1.7181475458342337,
                -1.518090257938747,
                -0.9888595512141231,
                0.8724187539887912,
                -0.8065776291415417,
                -2.617279607243114,
                0.3912503006056646,
                -0.8750842301811645,
                -2.2814713190021645,
                -1.071945867146086,
                0.21251866567092428,
                -0.08238582146152312,
                0.13711134343795617,
                -0.7685210651809496,
                0.26356560106304233,
                0.17163806458281766,
                -1.1570087939380032,
                -0.41650427800389284,
                1.9516679897269396,
                0.4426316874382317,
                -0.4277107527335728,
                0.6993931519140161,
                -0.4371266726165438,
                -0.7652732330590096,
                0.9215698136426916,
                0.9456604019562355,
                -1.011323386613,
                0.2443859426709723,
                -0.6088491213628346,
                1.6045627178560686,
                -0.5133938505004016,
                -0.34409649037637857,
                -0.033558774660897406,
                0.8781944070386474,
                -0.3164242791346705,
                -0.9696967822837697,
                0.9503701207874924,
                -1.6796966078043551,
                0.35766424359885995,
                -1.3170110229642227,
                -0.345345296329713,
                1.476398765174051,
                -2.659472150569441,
                -0.48116595412246044,
                -0.5212041036338814,
                0.33747883033349324,
                1.36194834173504,
                -1.607181359968344,
                1.9865920054130848,
                0.06489352661668363,
                1.174273417493515,
                -1.1390179791884385,
                0.33382300878443244,
                -1.1862616538434803,
                -0.8869450748755298,
                1.2391320466311266,
                -0.30254010192823927,
                -1.1331644979797124,
                2.0050550366002984,
                1.4413546387422158,
                0.4471930589394565,
                1.2676999785436072,
                0.2856731617958095,
                0.8041439745221007,
                0.22880927153892647,
                -0.34777637104305087,
                -0.5132392766641946,
                1.3489556530356615,
                -0.746977256423418,
                -1.0517912030736443,
                0.38257818285584144,
                1.8918214788288625,
                -0.08819762788244176,
                -0.16333129161496412,
                -0.16645347731778298,
                0.3249905607103247,
                1.7489094979310669,
                -0.49445423886238704,
                -0.5993257127824094,
                -0.7571435696180956,
                -0.3843018807797377,
                1.393099370539111,
                -0.459584714600394,
                0.8504144898485501,
                0.8417036268522093,
                -0.06372607970124258,
                2.123065033068537,
                0.09912874237066592,
                -0.3231452302402357,
                -0.9670861390451722,
                0.2473124383382241,
                -0.0448375861100759,
                -0.8881662868052684,
                1.1322075544445216,
                -0.43568719829703223,
                -0.4242821607007475,
                -0.30521687607566,
                -1.3939509328805155,
                2.141456768075239,
                1.9197546405560435,
                1.1136630976108794,
                1.9841002558133263,
                0.2825424547553037,
                0.35625221935572365,
                -0.4500113762292028,
                0.2832820329830066,
                0.08300953165901376,
                0.8096108842764885,
                0.3595171299101034,
                -0.7377431273045281,
                0.05646984099601545,
                -0.09216468060934521,
                1.475137844288989,
                0.36167638983372175,
                0.20616721862537235,
                0.22647926609505803,
                0.9926895433246862,
                -0.36562920877526184,
                -0.24474107644360724,
                -1.5949269395236878,
                0.41551618576252586,
                -0.14579441592059017,
                -1.0313101464098036,
                -0.28936114852864875,
                -1.340303403772749,
                -2.9202808096840958,
                0.8707481906639831,
                1.6408559339532498,
                0.13531370367571097,
                0.9842946511251538,
                1.7332482113503869,
                0.4247999894368187,
                -0.8078109574636729,
                -1.275180736109803,
                0.22750744343255433,
                -0.04831975391025207,
                1.4020356902669697,
                -1.032646560392186,
                -0.18973767510722367,
                -0.7882255931832333,
                0.6594360344777062,
                0.6515065059256707,
                0.8113562224224782,
                0.5638784621202458,
                1.0250664288834712,
                0.5265450984392334,
                0.9168222237873054,
                2.230253031562996,
                -0.636682875474783,
                0.23936825930626887,
                -0.5726265174771915,
                0.1466594923473566,
                -0.9221000123633043,
                -1.3160098712797093,
                -0.5060695491477859,
                -0.7994310775149932,
                1.2407355671813804,
                1.2499507100690448,
                -0.06425868181047377,
                2.4212351562424357,
                1.0556919406560101,
                1.0214391309290856,
                0.24619149371839297,
                1.8970448824858508,
                -1.605957117618782,
                0.5533754522315729,
                0.0634671093738429,
                -1.551666911854546,
                -0.5602896313941581,
                -1.0965495503400262,
                1.2998976013946173,
                0.23602273845660948,
                -1.2146994535671194,
                0.7956724265703752,
                1.7854712656839808,
                -0.825183399827534,
                0.3472163335942585,
                -0.7330632430911698,
                -0.5908926099467336,
                -0.8585691428746375,
                -0.716831137758051,
                -0.36464108582993776,
                0.07355769995215249,
                -2.791637781869866,
                -0.7086681009468735,
                -0.044493620865922484,
                0.2070098333443788,
                -0.16149784458086913,
                0.09111863895438327,
                1.0820489005842455,
                -0.6525969382321088,
                0.034651050729768075,
                -1.1275897091014868,
                -0.5747878013715968,
                1.8756879334046284,
                0.06550353861570322,
                0.5264877000627943,
                -0.5677810037308542,
                -0.30485932167508,
                0.2477281956378121,
                0.5827690534614356,
                -0.5879372856746476,
                -0.5020611765047212,
                -1.024434467886273,
                0.1892383945731877,
                -0.03778470262088447,
                -0.7351688039365775,
                -0.4224030111365556,
                1.9292504045079093,
                -1.0834969447821574,
                0.0872959349029691,
                -0.3372151999905787,
                0.8984176775262546,
                -0.6754894743544426,
                0.8650135198204413,
                -1.9696871335562203,
                -0.5062936279709181,
                -0.04148052695573235,
                -1.0667556292486824,
                -0.29130292789590123,
                -0.057993166558251874,
                0.35360584806094475,
                -0.2823530264466105,
                0.4863308314362004,
                -0.14581568783595367,
                -1.73472779702657,
                -0.17555664088079026,
                -0.5016719773170694,
                -0.7995808694758364,
                1.5138761112043249,
                -1.0692908063620399,
                -0.6448851836916684,
                -0.834112987335248,
                2.066467852176401,
                1.6439671041450985,
                0.41404302154984657,
                1.528454679964443,
                -0.5752867842192142,
                -1.4760972923344802,
                0.08180601710574469,
                -1.9970311965589613,
                -0.7187698501246883,
                -0.37825736066062543,
                -0.25370117548543575,
                0.09237957208535132,
                0.07758064440305669,
                3.168457201037236,
                -0.28873552762848254,
                -0.6081915858827944,
                0.29507203923884273,
                0.6880509969844641,
                -0.4737334021070401,
                -0.29557797488680354,
                2.309821370766804,
                -0.028158447187518816,
                0.8124646719734079,
                -0.956909934521321,
                0.5973706870100368,
                -0.16207855538393434,
                0.2884785347029151,
                1.2647381323545361,
                -0.1486140269248618,
                -0.8127353265623923,
                -0.14488155692946625,
                -1.6410049869256644,
                -1.521280059878141,
                -1.1149568102718055,
                -1.5562116496223852,
                -1.6600435500378918,
                -1.0929603330220996,
                -1.251299550381525,
                -0.5840193344340879,
                -0.4833425506539597,
                -2.5428349665073013,
                0.3231788209482855,
                -1.2976617070660021,
                -0.9494100663772349,
                -2.130441958536628,
                -1.201950463559302,
                -0.21208774727130175,
                2.616986712832837,
                0.525303442121542,
                1.0423308486355645,
                -1.1459169784410674,
                0.16573638021467926,
                0.07105156922215793,
                -0.2637181662956121,
                0.1954109801855393,
                -0.9044589412015455,
                -0.43309443623609095,
                -0.22948854345386618,
                -1.2034735184308913,
                1.1653819529087264,
                0.25259253171616597,
                -0.5434503013115306,
                0.3833666998675379,
                -0.5644125256002036,
                1.3169890357794698,
                0.5291421084442949,
                0.5333061360493959,
                -0.7085741483056996,
                0.7801219135656078,
                -2.1653972019646432,
                -0.9421364001763725,
                -0.5175021962692978,
                1.2539634623827447,
                0.9854905048698213,
                -0.28885405997034913,
                1.045169915076061,
                -0.12183511484851002,
                1.2540013720378411,
                -1.0793379498532372,
                -1.0950301132557638,
                1.5927975120756441,
                -1.2310448970251628,
                -1.950255858568618,
                -0.7094631589355271,
                -0.6257326361611247,
                -0.020407377368606826,
                0.6686881585427155,
                0.26899797917472246,
                1.3898696281131055,
                -0.44957838232018776,
                -1.266019886661995,
                -0.8727280242831617,
                0.1386086594439973,
                -0.6162666096404908,
                -1.20307686849988,
                -2.5812012567701155,
                1.1704310332689496,
                -0.11464262234386031,
                -1.74815101553986,
                -0.7126102970177636,
                0.21449118447465348,
                -0.0546877330192331,
                0.04792373388821597,
                -0.2850395267649733,
                0.11665515461326861,
                0.7092301879077301,
                0.6867018864749513
            ],
            [
                -0.13421662479708998,
                -0.5944081787456382,
                -1.3042910497982163,
                -1.1832501195519978,
                -0.6585461116150508,
                1.3942874297918284,
                -0.658886347572766,
                1.8500024712423617,
                -1.0006248823303778,
                0.9276312922337635,
                -0.9722587557241952,
                0.3130628277905237,
                -0.1572489236371946,
                1.0160266093739916,
                0.5662171971706916,
                0.29657884160664766,
                -2.0765981196447907,
                1.7581430685991128,
                2.099352644224056,
                1.9204916412728732,
                0.6008919796982725,
                -1.635485489357072,
                -0.038231962307478475,
                1.4128155655796697,
                1.1920077636365924,
                1.6557139294422134,
                -1.8582023398601815,
                0.7073480590719815,
                1.6215119642187101,
                -0.9961784693289849,
                0.20743694719642033,
                0.29464208204128484,
                1.3354535535534353,
                1.149961459136423,
                0.4384233812140476,
                -0.3961805814784594,
                -0.9912588602814516,
                0.43461637077578635,
                -0.9018969188187241,
                1.9206705490841067,
                1.0964468461392312,
                0.6768317080699269,
                -0.539005294575508,
                -0.3734897423989621,
                0.054717161003797976,
                -1.4208930276997636,
                0.8727812582693085,
                1.0610326391125038,
                1.9220930587726943,
                -0.20083702117195928,
                0.40596326354583034,
                -2.796228377221281,
                -0.580005426560605,
                -0.6070910435119662,
                -0.5655273750720838,
                0.8827739905797813,
                -0.8280799974779806,
                -2.3934908564520474,
                -0.9420094551090252,
                0.4832959936403856,
                0.8009674377657223,
                1.8968966659128321,
                1.3328487675818002,
                -0.2570386007110741,
                -0.9069429990491444,
                1.036741253940037,
                -0.1371067333414629,
                1.2875044179009196,
                0.531100338114351,
                0.3286161668366926,
                -0.49235277207770384,
                1.1859712348797127,
                -0.03243647638096326,
                -0.23666875611171057,
                0.17326421165543293,
                -0.5715822401870339,
                1.1646834118867526,
                -0.483188990396077,
                1.568005753396733,
                -1.2206273859984171,
                1.386247694318714,
                0.4543782720431213,
                -1.3687826515855728,
                -0.380117602316702,
                0.3114833164269731,
                -0.6999496091493053,
                -1.1571643349137142,
                -0.5056873113515318,
                0.10206252727685503,
                0.49925577295127543,
                1.2133205982012236,
                0.3012530458524709,
                0.22825099990274053,
                1.1730309487039419,
                -1.9713828494177528,
                -0.10921358248147008,
                2.139713975084319,
                -0.4763394198620886,
                -0.94060086716277,
                -2.058306749894232,
                1.067076596938766,
                1.050642707972251,
                -1.6144935542384062,
                -0.9087171882796637,
                0.7105542862187327,
                -0.81371565551363,
                -0.8782968131390844,
                -0.3479671859755592,
                0.01674711593132661,
                1.2724157414750534,
                -0.7428927714317002,
                -0.2637863952645821,
                -0.15875449981744919,
                -1.0731833353509959,
                1.6486584755379765,
                -1.2834306917687712,
                -1.2410219972480945,
                -0.11474045393961108,
                -0.18129162098382856,
                0.18152731474771427,
                -0.6518710964060112,
                0.6699988202624148,
                0.5523662415653297,
                -0.5957735350341802,
                -0.057658007865362536,
                0.8389638441665113,
                0.11983863932293079,
                -0.37804419210481377,
                1.218777623325866,
                0.5262643392502527,
                0.08429977786578538,
                1.5825819662180058,
                1.2411633179060173,
                0.8961601256525383,
                -0.3278398169189432,
                -0.3800113012730676,
                0.774752230083634,
                -0.281008814459722,
                -1.6933909281072963,
                0.6783118376134787,
                1.6730770952665408,
                2.6256707387940796,
                -1.4693594572721498,
                0.19593646216629204,
                0.4282264319928017,
                0.5407891875488571,
                1.6518889551288818,
                -0.2862392070939874,
                0.08243650802310719,
                -1.416413790692044,
                0.5734983880850854,
                0.7546737873992408,
                -0.5462498200928059,
                -1.6941574406547264,
                -1.581034796736567,
                -2.127023665650371,
                -1.409183774772112,
                0.6565135037227744,
                1.8715930294127567,
                0.41690384085959015,
                -0.4544622231242965,
                1.5047560112821177,
                0.004719398331258089,
                -0.42592896143722647,
                -0.530522593195907,
                1.3888912594381924,
                0.026148796398295548,
                0.10638038358204253,
                0.6849908220382724,
                -1.0698494637067275,
                -0.3318800330639549,
                2.5866674420268967,
                0.6083862634580887,
                -0.6262464109628008,
                0.28722135175984953,
                0.11020397234329687,
                -0.4597106528777989,
                1.2294451276440916,
                -0.2616135844784165,
                -1.4651971828966923,
                0.6035164112704753,
                -1.6988796236411485,
                -0.24804902704134282,
                -0.08118097306394156,
                -1.4614293381668593,
                1.9820597764649552,
                -0.9711182853315854,
                0.9901138555289095,
                1.3923144340374323,
                -0.0613245898726683,
                0.9054117149604867,
                0.5252543530326059,
                -0.7202350193839114,
                0.991688872855402,
                -0.8882611074101955,
                0.8899893760454115,
                -0.8490371626198269,
                -1.658766268548704,
                1.3944457825777141,
                -0.09367672379533988,
                1.2293584180165014,
                0.21467879936853315,
                0.7886341173121747,
                -0.7639978188831411,
                0.329604105488602,
                1.6964664307352546,
                0.26023794755945767,
                1.1396305280964105,
                0.2183178901399998,
                0.930136151804363,
                -1.9496501147091925,
                -2.3515832359683095,
                -1.2981696306381556,
                1.3366349225277014,
                1.090860613410269,
                2.2242439794005,
                -0.6303399113084478,
                -0.21243134742044764,
                -0.39443845896431967,
                -1.8165610071011864,
                -0.5666289318066865,
                1.073459977300285,
                1.154341854427835,
                -0.06942143874263057,
                2.0261678837545243,
                -0.7551995931686336,
                1.4105024687654255,
                -0.04396697087160021,
                -1.375088154612006,
                -1.1560474012469304,
                0.7850372927817137,
                -1.5827326782104956,
                -2.6156843835862307,
                0.27980597125534296,
                1.1617275154159945,
                0.9311010274168661,
                1.2674028808380307,
                0.003557683511906079,
                -0.7269233856518377,
                -0.5817579025816302,
                0.45258484938788696,
                0.002444734504812257,
                0.5628013782210793,
                -1.035684233192339,
                1.1533386476479461,
                0.3351199422674783,
                -0.5071084893156065,
                0.403521492222375,
                -0.5238385333654264,
                -0.6692072088109132,
                -0.162860528486185,
                -0.7267427779749231,
                0.1541845382011449,
                -1.0143645259295406,
                0.27795152241401017,
                1.7946425426203239,
                1.1182676930882653,
                -0.12650060988436906,
                -0.21060513174786302,
                0.2776355395861898,
                0.4193083009332816,
                -0.9841132386572596,
                0.24728188500243123,
                1.0816126448935686,
                0.5217223761571799,
                -2.773636589202204,
                -1.8536388705526814,
                0.11888824924725017,
                0.14430672543048048,
                1.0058928211693632,
                0.7800114924950018,
                0.04394477887561514,
                -0.14658926815354323,
                0.681435067012564,
                -0.6578432224205609,
                -0.2618296410768782,
                0.3475809757928667,
                -1.4881254308779346,
                1.1518808269446401,
                -0.10637031209413395,
                -0.4001377550329681,
                -0.7481004119962524,
                -0.5689294412146033,
                -0.445792337322814,
                0.8990171033428047,
                1.332398867240977,
                -1.0924781075236123,
                -0.7059343299927403,
                -1.2720437720465265,
                -1.4908997204585825,
                -1.284864743517012,
                -0.2235536435667529,
                -1.9112299033524933,
                -0.57633296759397,
                -2.600592938120621,
                -0.30536288831268643,
                1.0697428523083752,
                1.4215209670353357,
                2.4078636015515484,
                0.9378351417557627,
                0.13660835778081667,
                -0.5409170195870501,
                -0.39729968405860683,
                -1.4079366849865664,
                0.3582059714080166,
                0.7255622600505891,
                1.3732912509611366,
                0.13987841518118305,
                -2.022890508986278,
                0.4696805461227663,
                -1.0263065566684801,
                0.7874029626631208,
                -1.8310681714629695,
                0.44253594007446834,
                -0.9769554414387405,
                -1.172800223963966,
                -2.3576153252165972,
                -2.055929671267188,
                -2.3542605898573874,
                -1.9162214224103669,
                -2.1378193871843676,
                -2.501786420044352,
                -0.7890785116408612,
                -0.8074072657866475,
                0.24802481195762188,
                0.3843957719588831,
                0.7899111809814156,
                0.22411963001474164,
                -1.1079262489728476,
                -0.44958025268037527,
                0.7120202137778731,
                -0.35678497092029327,
                0.176375754900681,
                0.9673067704684724,
                -0.471247952924161,
                0.9091495082520186,
                -2.4031409445866165,
                -0.7795182294592868,
                -1.6015867553106207,
                -1.4390303796859998,
                -0.6441961754921248,
                0.47536336955175035,
                -0.11192314959555986,
                -0.929672405277651,
                -0.833270953195407,
                -0.793865378663752,
                -0.38754218849476424,
                -1.0055087472913378,
                -0.07344292627591748,
                -0.6125659896561426,
                0.22755078182018726,
                -0.9017943645286564,
                0.44200820013502684,
                0.618145282332004,
                0.7922887837517155,
                -0.08071677702026456,
                -0.02111410710706711,
                0.4677238726915142,
                -0.3544963210850399,
                -1.7060145315858342,
                0.7290742338761457,
                0.1945643086247444,
                -0.3442400342062035,
                -0.7488012320798401,
                -1.6549742787934236,
                0.04915614225392184,
                -0.4952565201674691,
                -1.1318931884462042,
                -0.37873333100556666,
                0.8754378898710388,
                -0.9546358284726091,
                -2.275126242200938,
                -0.07522607249593029,
                -2.0704643131699054,
                -0.6988509915493822,
                -1.1729556424922514,
                0.2742942503183388,
                -0.6741528049103228,
                -0.807132601631225,
                0.30136094252289247,
                -0.8276588466689329,
                0.5816002576089601,
                1.8372120341612963,
                -1.4401422245387285,
                -0.16076931376644393,
                0.12370378402786658,
                -0.36374458856698116,
                -0.31993710470794917,
                -2.541428469884291,
                0.6025532434039917,
                0.2709635654457903,
                1.6043235081364984,
                -1.246524496587746,
                -1.3559935568667254,
                1.5649049135944124,
                -0.1292073622279286,
                0.9333998920352209,
                -0.6596097689298709,
                0.512787557764563,
                0.02749751409916659,
                -1.8588398925361849,
                -0.918312064019963,
                0.11781714320641526,
                0.15884072101797347,
                1.663563098555463,
                -0.2281259019665168,
                -0.41520092631880406,
                -0.7396215574034006,
                0.018384075569309672,
                0.9466751072801775,
                -0.8913183947,
                -0.18966364216630402,
                0.7403543673940333,
                -0.9344874917233368,
                0.8540702619362538,
                -0.7712264415264339,
                0.7378750416337426,
                -1.274594217183537,
                0.36601564861058533,
                -1.0882650290025804,
                2.2039473402633782,
                -1.3091754151827297,
                0.07362738617402326,
                0.9644918886033037,
                -0.17753685916237744,
                0.2892658001068709,
                0.491847274166546,
                -0.22410747058538266,
                -0.14338834848682655,
                -1.5503159998499774,
                1.8415836504536862,
                -0.09926971459980065,
                0.5597355328769927,
                -0.026558071355100528,
                -0.3704910168362146,
                0.87728942628862,
                0.19791505413636365,
                0.313469872142442,
                -0.27790908651586443,
                -0.3247500827090958,
                0.3234362614690019,
                -2.4280348486939056,
                0.7046956967862065,
                0.40198722418245103,
                -0.5184435590261703,
                0.0914876357531821,
                -0.9945810213799525,
                -0.2056631192736031,
                0.9103816366634592,
                1.147189423238914,
                0.055329086458254476,
                0.8376843548496354,
                0.42569457354467716,
                -0.4379046200914644,
                -0.744477725320385,
                0.7414495743841484,
                0.055620400449448375,
                0.9937520656568583,
                -0.051261475774876455,
                -1.0167751355295083,
                0.11748122520023029,
                1.0145625410052987,
                -0.9873324135909916,
                -0.7404488654991409,
                0.1451441345045625,
                1.0493053997512383,
                2.398238969402053,
                1.020160217529076,
                0.609192873078511,
                1.7294373001258632,
                1.335898722887291,
                -0.2560300618034883,
                -0.43863506377208494,
                0.551185798717791,
                -0.4222960720950402,
                0.45267118724054345,
                0.6750245955459732,
                -0.4316039917493946,
                0.6376324025211533,
                -0.3549073089476283,
                1.8455785660282369,
                0.05874798295122519,
                1.396836988615553,
                -0.24893528815439955,
                1.1667410081833722,
                1.2906170578146818,
                -0.2443586184967717,
                1.2432067744557325,
                0.6963911278574147,
                -0.07017295007460359,
                0.04470435390122278,
                2.1429144956173185,
                0.1607182502584474,
                -0.47024503748597946,
                2.0816902252165788,
                1.5449514034072886,
                -0.90908455966103,
                0.12952678826626193,
                0.19057430555468372,
                -0.2617399599721978,
                -0.8998394330749643,
                0.9755419242339874,
                0.47127841488081823,
                -1.4516192426926415,
                0.9700860584658901,
                -0.31138226043343414,
                1.1619651305428436,
                0.9620285580202942,
                1.773956579800472,
                0.7154698474636256,
                0.27224055556990523,
                1.538948262037006,
                0.06008726254863696,
                0.384561335102224,
                -0.2673726197371041,
                0.3100352701931978,
                0.2145737920346574,
                0.16738927027176795,
                -1.0758207461773952,
                1.3477160367163004,
                -0.16023804175459502,
                1.5828118472786443,
                1.1017441499215916,
                0.30342385819762874,
                1.2160146175608566,
                -1.5414701525212655,
                -0.1535237673462542,
                1.083738056975127,
                -2.012817197996039,
                0.2715487675028899,
                -1.2235086054228983,
                0.8951415726332606,
                -0.2726194061827463,
                0.8177351040792943,
                0.45757689377627253,
                1.4780710027060495,
                0.38633619051370666,
                -0.6743857607905519,
                -0.36985436436228525,
                0.383437551993568,
                -0.8597914119536604,
                -1.074170499568603,
                0.010889377432549842,
                -4.2154798705930245,
                0.03220738128330882,
                0.7714381609381157,
                1.1384692588520393,
                0.03811920274695347,
                -0.3290787709942551,
                2.01876105327238,
                -0.29306361777743706,
                1.6448074654275981,
                1.202652619650643,
                -0.19950334988994975,
                -2.348824814419759,
                -0.3455838528367994,
                1.3064658418045867,
                1.4879012503281175,
                0.11691778926343331,
                0.99737209445587,
                0.7598575876555771,
                -1.5322357896856773,
                0.990222597313887,
                0.2479673125323397,
                -0.6367277816729415,
                0.009577327372642105,
                -1.4052987431912665,
                -0.3883396102131739,
                0.0799201119593797,
                -0.774988126815464,
                -0.1226933776750752,
                1.1690814890375527,
                -1.0858994754130966,
                -0.24498061178181826,
                0.26815704240140414,
                1.174633824504085,
                -0.17786837665849256,
                -0.003974812214723568,
                -0.2666892830857602,
                0.3281539622048716,
                -0.3277233350720875,
                -1.4444688091490907,
                -0.1571586234838897,
                -0.41852707157087193,
                0.7513824352208781,
                -1.25391445777272,
                0.4672935878899086,
                0.05161212125123885,
                1.8573060391115472,
                -0.08502021899112848,
                -1.1246621469063134,
                0.4929123260869371,
                3.004041957847575,
                -0.8101902764171568,
                2.1507828942945766,
                0.7649688686604404,
                -0.5759870038337328,
                0.2163159991282064,
                -1.1201054029254882,
                -1.2197315444865684,
                -0.8338794129809166,
                -0.37308794512190485,
                -0.8122897650094842,
                -0.11958403179899729,
                0.7245318843328107,
                -0.2310943062456469,
                0.7522816355495617,
                0.03631113005429676,
                0.6443506548497487,
                -0.07867777491509581,
                -1.6187881379264575,
                -0.7939147214632574,
                0.6135652093224688,
                0.24465506851844998,
                -0.07372026286839954,
                -0.3533848842858529,
                0.5484097382157591,
                -2.139982692074693,
                -2.7077956019784852,
                -1.7818973240561402,
                0.09962561428728166,
                1.0287224630689662,
                0.003113891337359022,
                -0.22515281385689215,
                0.4205098441274074,
                -0.8687455052259897,
                -1.0324025683633251,
                -0.7588713610594774,
                0.9477456638840269,
                -0.4305288964990071,
                -0.8804071177544518,
                -0.5750680170355968,
                1.4084188452310322,
                -0.7816351499919955,
                -0.3311462418699482,
                3.0878579947832683,
                0.5183528975999885,
                1.920886381394098,
                -0.10366506555870736,
                0.3042924917165089,
                -0.48095381132440895,
                0.7288938307914365,
                -0.09476501876880729,
                1.5860257781611415,
                -1.6983248839543117,
                0.6346187867851443,
                -0.64300703921875,
                0.8110274868910774,
                -1.2757722280321102,
                -0.38657244226302717,
                -0.6563872215960281,
                -0.16510539803237823,
                1.3428250908303467,
                -1.1167274574609227,
                0.019565656285893848,
                -0.10917923337220542,
                0.43155879761822596,
                -0.7651891745906029,
                -0.574218443760364,
                1.4800107425913227,
                0.20428229661099817,
                0.5389270014624131,
                0.6223896159219394,
                -1.0989995927190919,
                0.9179747832966068,
                0.473986496556349,
                0.021359821545197364,
                -1.6893779590101743,
                -1.4790162907445366,
                -0.7537941054607354,
                -1.9871954927766506,
                1.5656868947693259,
                0.36381216086342555,
                -0.9730372348055036,
                0.4030191145600108,
                -0.7911258002385493,
                0.9423628177704159,
                -0.4888902620020805,
                1.5072742202939147,
                0.2795263467582798,
                -0.3991757892199823,
                -0.2512271075882131,
                -0.7745672548978954,
                -0.09687829637688723,
                -1.1681431317957638,
                0.24867119609303445,
                -0.020244849392908465,
                -0.5260845449495168,
                -0.8549744969117401,
                -0.268900756681075,
                -1.5219120572267182,
                1.4226817179231483,
                -0.408048663263452,
                -0.24135323998890731,
                0.012343834271221417,
                -0.142047374352658,
                0.021146153536664117,
                -0.6289008728186956,
                -0.3588986256877826,
                -0.16137124458469818,
                0.9933663167021275,
                1.0368668595849635,
                -0.7310845464499802,
                -0.17625606833696106,
                -0.20746154611217202,
                0.008626703518343553,
                -0.9288502913997341,
                0.4762317498327836,
                -0.504608633971018,
                0.9075479581734827,
                0.4062458784584303,
                -0.44139890225334566,
                -0.7857313756908934,
                1.1914340983248533,
                -0.834732365733945,
                -0.10503976167989844,
                -1.0999418159787935,
                0.8541324383155543,
                -0.6018115516909759,
                -0.8431168082495772,
                0.5916639161989845,
                -0.2699672062449728,
                -0.07663530691903012,
                -0.34117778300783735,
                0.9756128402021197,
                0.8145161112919939,
                -1.0856819199916001,
                0.2411862954412507,
                -0.04306842459530347,
                0.22443119557999802,
                0.5471046113667843,
                -1.2768787035175462,
                -0.1119721337792691,
                -0.6099693519095774,
                -1.15442885337485,
                -2.991364765110472,
                0.8714659611137018,
                0.7776125526791883,
                0.1604870934795158,
                1.647577609667383,
                -0.2678338618824392,
                0.8554907030622996,
                -0.867985490489673,
                0.2300477753711854,
                -0.02353089037405209,
                1.4996468532644567,
                1.1104096971717594,
                0.2448615621322111,
                0.21253167052082553,
                -1.6150568216874603,
                1.5804397325503012,
                0.8869501179948942,
                -0.8805520044734013,
                -0.38412554859840203,
                0.47165794025081437,
                -0.3747102198556159,
                0.418159972757856,
                0.6610379765155234,
                -0.7446243640651904,
                -1.019387342981357,
                -0.7108708803262608,
                0.26192654419266087,
                0.7363225100173001,
                2.215099590283757,
                -0.18259926039699784,
                0.6579024024562783,
                1.7547462655293449,
                -0.6302457459137903,
                -0.21433479956908813,
                -1.5213714328491397,
                -1.913500677675151,
                0.5456195359252879,
                -1.4563768338390937,
                -0.95745595841577,
                0.14689840578236193,
                -0.3901579084563009,
                -0.9964430479243106,
                0.6321771064965986,
                1.2106308036041655,
                0.4436386242441506,
                -1.0747824636252332,
                -0.06245469388092979,
                0.44126553713927774,
                -0.22573104880153055
            ],
            [
                1.2013977488871805,
                -1.8565107451156502,
                0.5889983201528245,
                0.027655242460523033,
                -0.48624418730838925,
                1.2894257078661446,
                0.4452706405365219,
                0.6646453986446857,
                -0.13239384413497818,
                1.2203050426861222,
                -0.7147918020679704,
                -1.5669532297317932,
                1.6655156647088447,
                -1.41689003616769,
                -0.4371730098348093,
                -0.7910497281008555,
                -0.7550963300406723,
                -1.0175554686541501,
                -0.4584367678479298,
                0.4545492327532763,
                -0.6036744350986537,
                -0.7151384872373543,
                -0.7666332459312515,
                0.6318199939427646,
                -0.3086874032649792,
                -0.05167171534316802,
                -1.1582338536743602,
                -0.3640614456912749,
                -2.172671253664317,
                0.7706311668814256,
                1.5393129031545498,
                -0.11650854629015232,
                -0.6030071078858655,
                0.39287079375274303,
                2.0347648805785905,
                0.6034979475081192,
                -0.07773958257412848,
                0.8671105315693036,
                -1.32959155305043,
                0.49593450123426813,
                1.2154030565759562,
                -1.4321533963466015,
                -2.293540856664718,
                1.621099456219401,
                0.5846991927477558,
                0.15378456347420918,
                -1.186455044781923,
                0.7222678130729138,
                1.2544304919772027,
                -1.248275074968084,
                -0.18189802598831945,
                0.022535450726075833,
                -2.07397081846257,
                -1.0870620137255178,
                -0.22816398307383126,
                2.2802583104832093,
                0.00586491569986626,
                1.384825998925043,
                -0.814404063594564,
                -0.046940795552135824,
                -0.6904488686599096,
                -0.756198859502998,
                -0.6387846963269952,
                -1.074124017071342,
                0.2896563512835798,
                1.1675287858938248,
                2.666747745033949,
                -1.807038134069194,
                -0.32588886732195765,
                0.122568655409565,
                1.19657199788442,
                -0.024071309731664863,
                -0.18262793292761512,
                0.6628998745666985,
                0.22421876157369242,
                0.03175012436119478,
                0.110334375291453,
                -0.4986723631148659,
                1.0234101804169478,
                0.5322691487478965,
                1.5840241607444563,
                1.7810783679717832,
                0.9799297855961308,
                -0.7454101206236294,
                -0.2810633752007421,
                0.43797295711225903,
                -0.20294160238073172,
                0.3160521335229741,
                0.39731243082338735,
                -0.04247916261397312,
                1.0349033918322208,
                -1.5127168040721073,
                0.32750284787980594,
                -1.1598759047786389,
                -0.5188190158255174,
                0.2671506173992819,
                1.5883392020265468,
                -0.9350682768540827,
                -1.7125423347813005,
                0.009677996546648557,
                1.2183392905733024,
                1.051073595991899,
                0.6811705251017202,
                1.1849182819943542,
                1.285913679189987,
                0.8731872684308795,
                1.0905109142784226,
                1.0831530967950764,
                1.404456683888664,
                0.5409957354250466,
                -0.45282335694497305,
                -1.0421543463156853,
                1.9943546833649164,
                -1.4596958774913003,
                0.23995798498959417,
                1.4988947980683336,
                -0.7238448277353637,
                -1.7564623337884746,
                -1.0531418997132411,
                0.5088049365206488,
                0.20783885175963743,
                1.9544213229005247,
                0.30204100918637994,
                0.02325982246537025,
                1.110424951415863,
                0.7274702484606103,
                0.841746243199056,
                1.8214642819779778,
                1.278335294133792,
                2.814843425052991,
                -0.7387795647182422,
                1.4902906517176,
                -0.38138752182289254,
                -1.4631820181361666,
                -2.0724645177769063,
                1.3631675031990917,
                0.9209903002619564,
                -0.25502022869469015,
                -0.8156519279286792,
                -1.9697431289857597,
                0.49162714807017377,
                0.6039178762120124,
                0.6633925147524625,
                0.06202147417330163,
                0.58361734497354,
                0.4809929330396891,
                0.6488841223699324,
                -0.37792212440032263,
                1.6891530292301837,
                0.040761209377531624,
                1.385251377538304,
                0.3334166514734005,
                1.341151796991974,
                0.9229882307262024,
                -1.2881662762736221,
                -0.4227500034007954,
                0.5380117129762855,
                0.06251102462983588,
                1.0340253287288808,
                -0.13824059038192177,
                -0.09617602051538679,
                0.9060265576157125,
                0.20578513863065118,
                0.414330632040985,
                0.8950478987722157,
                -0.16361462555720271,
                -0.7497559019484628,
                3.276188892975739,
                0.5861147746838897,
                -0.34392982445192505,
                -0.25496759637659283,
                -1.1533351921376631,
                -0.4824896508872834,
                1.9395060779968394,
                0.31436203667811635,
                -1.5868934035857418,
                -0.9006172921680478,
                -1.2192407383918835,
                0.36376576859482473,
                -0.5579690779977957,
                0.7533015093511631,
                -0.8734992454016417,
                -2.3338083989115304,
                -0.02689624203930046,
                0.3675887951218037,
                -0.7888112372172481,
                0.08773220343435595,
                1.2606792293004594,
                -1.1694994503177067,
                -0.06422892874570983,
                2.1417036966552425,
                0.4385808025669504,
                -1.9419256361187225,
                1.0216844721118306,
                -0.5466480470195654,
                0.024789839744123503,
                -0.2285668276726794,
                -0.3298555684746181,
                -0.9814586154236447,
                -0.46827910560122515,
                1.5136639123486988,
                -0.9748726809763278,
                0.8613463765774039,
                -1.2303198785593508,
                -1.5151994121796468,
                -2.194982788699993,
                0.9271090188756769,
                -0.8571064298110431,
                -0.9742796523840822,
                -0.0013955047277260956,
                -1.2098732483553545,
                0.8473238276069965,
                -0.3569348734346677,
                -0.5798949936633814,
                -0.1059788852612015,
                -1.304585496193864,
                -1.3889128733787799,
                -0.1329241865435142,
                -0.27042193927044167,
                0.923304160133365,
                0.3221967013123424,
                -0.8277710290446889,
                -0.6023623703505638,
                -2.20950637638406,
                0.5291929553559872,
                1.2283303675401072,
                -1.9182386488077137,
                0.5846609206936545,
                -0.4528678338398962,
                -0.8507511790117075,
                -0.6991031355360297,
                -0.17364707578961927,
                1.1100089988607518,
                -0.03560520715176619,
                -2.5487677846698076,
                -1.163447805584793,
                -1.4613704659577362,
                -0.7688560409016775,
                0.06573891799380192,
                -0.32923321570310526,
                0.7442069560278429,
                0.45006316867507573,
                -0.18765900336420116,
                0.7451477551779166,
                -0.7087794301332679,
                -1.2702017414173952,
                -0.11689588214220191,
                -0.28070923489927646,
                -0.3451342160246128,
                -1.037451957541874,
                -1.1150663228975048,
                -1.4042527424256626,
                0.28607040754612284,
                -1.9214616688593553,
                -0.047576549777717324,
                -0.33840236397867224,
                0.21430525199341183,
                -0.35842370915303207,
                0.2913857011650283,
                -2.00280186765973,
                -1.2933025281849222,
                -1.2696455880601183,
                -0.1676391535599119,
                -0.7851199165472814,
                -2.359383507668849,
                -2.4370712043101013,
                -1.0737870754607695,
                0.4261012278052917,
                0.4642732656306504,
                -1.267259539395629,
                0.5033577364512498,
                0.05407695382468252,
                -0.024990170270526246,
                0.6113682218910402,
                -1.5114275862332152,
